tree
version=v4
num_class=1
num_tree_per_iteration=1
label_index=0
max_feature_idx=10
objective=lambdarank
feature_names=bm25_score bm25_rank vector_score vector_rank retrieved_by_bm25 retrieved_by_vector title_overlap body_overlap doc_length query_length freshness_days
feature_infos=[0:41.331379266907106] [1:999] [0:0.8502199649810791] [1:999] [0:1] [0:1] [0:1] [0:1] [42:244] [1:6] [0:540]
tree_sizes=3441 3433 3426 3436 3418 3430 3441 3441 3417 3441 3437 3426 3416 3433 3432 3422 3441 3442 3433 3439 3432 3441 3435 3447 3418 3428 3436 3451 3424 3446 3428 3439 3437 3430 3448 3433 3440 3442 3439 3439

Tree=0
num_leaves=31
num_cat=0
split_feature=3 8 1 3 1 8 3 3 1 6 8 8 0 8 6 1 7 6 1 6 1 3 3 6 7 10 1 3 6 3
split_gain=5530.97 662.117 483.554 158.226 119.749 85.4391 46.0768 31.2415 32.3509 13.4608 13.0735 11.0295 9.25399 8.65677 14.8678 7.00428 6.97819 6.69497 6.54102 6.41243 6.22537 5.46076 5.14448 4.64643 4.18125 3.99957 3.97398 3.90862 3.75547 3.75262
threshold=14.500000000000002 121.00000000000001 12.500000000000002 47.500000000000007 18.500000000000004 162.50000000000003 10.500000000000002 26.500000000000004 19.500000000000004 1.0000000180025095e-35 152.50000000000003 121.00000000000001 5.3005981668637201 160.50000000000003 0.22500000000000003 20.500000000000004 0.29166666666666669 0.22500000000000003 12.500000000000002 0.36666666666666675 9.5000000000000018 7.5000000000000009 10.500000000000002 0.18333333333333338 0.36666666666666675 57.500000000000007 10.500000000000002 32.500000000000007 1.0000000180025095e-35 45.500000000000007
decision_type=2 2 2 2 2 2 2 2 2 2 2 2 2 2 2 2 2 2 2 2 2 2 2 2 2 2 2 2 2 2
left_child=1 20 3 5 18 -2 21 8 10 26 -4 -10 16 -14 -15 29 -5 -13 -3 24 -1 -6 -20 -8 -12 -16 -7 -11 -24 -9
right_child=2 4 7 12 6 9 23 15 11 27 19 17 13 14 25 -17 -18 -19 22 -21 -22 -23 28 -25 -26 -27 -28 -29 -30 -31
leaf_value=-0.054627935566673169 -0.061654610550958049 0.096462885063802142 -0.082533833731020259 -0.10000000000000001 0.074215604738252991 0.035017311739733638 -0.038953393346233385 -0.057046375217692839 -0.094509855625845574 0.077556895765413511 0.027353238006493946 -0.074087761664496987 -0.086405757747024886 -0.073337456275088336 -0.092271988732425286 -0.093312743427535427 0.0073417575121302071 -0.043580314299239066 0.085230393016058711 0.058443626801078022 -0.085494535385959136 0.035589462752800727 -0.01372268785123136 0.0039765876090208764 -0.029986091790358507 0.0056240370908515564 -0.03003345829122377 0.041385083302706314 0.060945154039238475 -0.083399670923924335
leaf_weight=29.181842115474865 16.613072668667883 924.94405634165742 5.6417739656753865 1.8519580652937282 26.279763271682896 17.373667237348858 17.37960478710011 17.106725051999092 60.368186018939014 58.159134706947953 4.6930195866152671 90.847608351599774 24.642714821733534 20.333295872434974 1.1517109470441926 742.39099500947123 8.2985407906817255 22.422169271216262 25.328714585630223 4.2306291791610411 37.106833373632981 14.038009310781488 2.3437609621323627 9.8893203514162433 9.8575354665517789 11.087356889620422 2.7146466737613073 8.5686262832023186 5.9820882920175791 64.22069946420379
leaf_count=569 481 7026 357 88 837 261 878 926 3486 696 165 4879 775 703 39 42943 185 1076 575 119 2362 557 100 402 460 263 133 157 174 4067
internal_value=-2.90492e-05 0.0812465 -0.0744826 0.0033911 0.0911397 0.0422302 0.0268145 -0.0874996 -0.0696697 0.0621095 -0.0157886 -0.0772484 -0.0562401 -0.0640457 -0.0471291 -0.0917867 -0.0122427 -0.0680487 0.095675 0.00426137 -0.0719063 0.0607666 0.0740224 -0.0233845 -0.0114923 -0.0035881 0.0262266 0.072912 0.0399258 -0.0778564
internal_weight=2285.05 1092.47 1192.57 170.795 1026.19 103.429 67.5867 1021.78 198.061 86.8161 24.423 173.638 67.3656 57.2151 32.5724 823.718 10.1505 113.27 958.599 18.7812 66.2887 40.3178 33.6546 27.2689 14.5506 12.2391 20.0883 66.7278 8.32585 81.3274
internal_count=75739 13480 62259 3781 10549 1728 2674 58478 10542 1247 1101 9441 2053 1780 1005 47936 273 5955 7875 744 2931 1394 849 1280 625 302 394 853 274 4993
is_linear=0
shrinkage=0.05


Tree=1
num_leaves=31
num_cat=0
split_feature=3 8 3 1 8 1 6 3 6 3 3 1 6 3 3 7 1 3 6 7 6 8 6 0 1 0 0 1 1 0
split_gain=7075.84 697.151 292.872 245.998 142.425 93.7532 89.7853 76.9302 38.7937 36.0457 21.0243 19.7242 17.811 17.3079 15.943 13.5408 12.8902 15.7407 12.3645 23.421 12.1072 10.9437 13.756 11.6594 10.4046 10.2754 10.2379 10.0603 7.73929 7.66867
threshold=14.500000000000002 121.00000000000001 26.500000000000004 10.500000000000002 121.00000000000001 12.500000000000002 0.22500000000000003 11.500000000000002 0.18333333333333338 10.500000000000002 18.500000000000004 11.500000000000002 0.22500000000000003 6.5000000000000009 12.500000000000002 0.36666666666666675 18.500000000000004 46.500000000000007 0.36666666666666675 0.45000000000000007 0.29166666666666669 171.50000000000003 0.22500000000000003 5.3005981668637201 6.5000000000000009 4.9882812629702018 11.302482783664338 43.500000000000007 8.5000000000000018 9.9448825297775496
decision_type=2 2 2 2 2 2 2 2 2 2 2 2 2 2 2 2 2 2 2 2 2 2 2 2 2 2 2 2 2 2
left_child=1 -1 4 8 -2 21 10 12 9 24 28 -8 13 29 -10 -15 17 20 19 -9 -7 23 -23 25 -3 -4 -26 -12 -6 -5
right_child=2 3 5 7 6 16 11 18 14 -11 27 -13 -14 15 -16 -17 -18 -19 -20 -21 -22 22 -24 -25 26 -27 -28 -29 -30 -31
leaf_value=-0.075730589623750469 -0.078744976875640402 0.075881415403075345 -0.072567925315675838 0.056186103467514417 0.036994892063849559 -0.055317534823031138 0.040578307170428644 0.0079533888141764281 0.085870068579919953 0.0074221691669648718 -0.030902227141573525 0.00045821944385265748 0.061367075015696541 0.033466711855950154 0.058522705781062702 -0.013738147000302198 -0.084408681785623454 -0.078144230743027732 0.044841013404768384 -0.051932474360188045 0.016136115783872845 -0.045655323688322091 -0.0035939649910492091 -0.072653533540521717 0.056784830698922206 0.039321990667058215 -0.021331559374126913 -0.059465763284796407 -0.021108395265766314 -0.0039717915278870159
leaf_weight=82.917783787357621 128.63550647266675 116.89176066964865 3.4649530653841776 85.873998472467065 6.2316877879202357 20.582670861389492 49.269117526710033 51.641177442041226 1264.3933952478692 27.919896256178617 48.220477089751512 80.999152920208871 157.6293619684875 53.362595279933885 55.639249451458454 21.238103424198925 1241.8529136874713 75.246281491592526 11.420526750385759 23.874782400205731 8.3266364904120547 40.430116955190897 37.439182295463979 30.016473773634061 20.434479176998142 5.0315243005752563 5.2776887491345397 85.460207370808348 71.348920286516659 5.6458402164280406
leaf_count=2931 4126 343 91 519 68 568 485 878 5586 92 1069 1480 1414 596 233 223 44367 2851 137 327 150 956 532 1047 121 40 38 2773 1656 42
internal_value=-0.000136557 0.0661882 -0.0682324 0.0723776 -0.0339043 -0.079269 -0.0170153 0.0381138 0.0818182 0.0593754 -0.0371464 0.0156321 0.0493277 0.0379038 0.0847174 0.0200279 -0.0829916 -0.0660962 -0.00364687 -0.0109799 -0.034737 -0.0362152 -0.0254324 -0.0580168 0.0695472 -0.0063079 0.0407506 -0.0491625 -0.0164412 0.052475
internal_weight=3916.72 1984.16 1932.56 1901.24 470.165 1462.39 341.53 410.686 1490.56 170.524 211.261 130.268 323.75 166.121 1320.03 74.6007 1346.01 104.156 86.9365 75.516 28.9093 116.382 77.8693 38.513 142.604 8.49648 25.7122 133.681 77.5806 91.5198
internal_count=75739 13480 62259 10549 11657 50602 7531 4136 6413 594 5566 1965 2794 1380 5819 819 47936 3569 1342 1205 718 2666 1488 1178 502 131 159 3842 1724 561
is_linear=0
shrinkage=0.05


Tree=2
num_leaves=31
num_cat=0
split_feature=3 8 3 1 1 8 1 3 8 3 3 2 1 3 0 1 2 1 1 8 3 7 1 2 7 2 1 1 3 10
split_gain=5881.25 458.028 310.704 148.128 138.247 70.3184 68.5579 32.4549 31.2516 19.893 12.7252 12.0663 11.7592 11.349 11.7451 9.07477 8.18309 8.77913 7.87439 7.43971 7.41855 6.85754 6.34226 5.63179 5.4525 5.24725 5.15873 5.14076 12.7807 5.09875
threshold=13.500000000000002 121.00000000000001 26.500000000000004 14.500000000000002 13.500000000000002 121.00000000000001 12.500000000000002 8.5000000000000018 159.50000000000003 18.500000000000004 10.500000000000002 0.22651104629039767 48.500000000000007 48.500000000000007 5.3005981668637201 9.5000000000000018 0.12702911347150805 34.500000000000007 27.500000000000004 162.50000000000003 5.5000000000000009 0.36666666666666675 6.5000000000000009 0.57410573959350597 0.29166666666666669 0.31762282550334936 2.5000000000000004 18.500000000000004 46.500000000000007 427.50000000000006
decision_type=2 2 2 2 2 2 2 2 2 2 2 2 2 2 2 2 2 2 2 2 2 2 2 2 2 2 2 2 2 2
left_child=1 -1 4 10 8 -6 13 11 -2 16 22 -5 -11 19 24 -12 -7 -18 -9 -4 25 -20 -3 -10 -15 29 -21 28 -8 -13
right_child=2 3 6 7 5 9 27 18 23 12 15 20 -14 14 -16 -17 17 -19 21 26 -22 -23 -24 -25 -26 -27 -28 -29 -30 -31
leaf_value=-0.055530223428344808 -0.055738578229588158 0.080073721510141041 -0.063155315057731073 -0.032302760283105268 -0.077826255349140228 0.089775544350094383 -0.038100607816096921 0.031111242148633939 0.028964803404493956 -0.024302786852839774 0.068157804821168094 -0.0064678738811772829 -0.05172449554298502 -0.090720292174887154 -0.057264528745887881 0.034687841861749745 0.0038475055872272887 -0.025294598650389407 0.0098369364970943285 0.062665954194364215 0.037311048742838415 -0.034040117722302234 0.071809419984603412 0.067985459686551661 0.0052146888032753537 0.062939659686693905 -0.0069673306793935769 -0.07909808237845134 -0.078665940667430143 0.064658988171250514
leaf_weight=75.655492212390527 11.010881347581742 990.09827520512044 5.4473970532417324 4.4164183996617785 100.75903150334489 1.9046341478824604 27.269870633725077 37.447562394663692 79.614602660760283 66.980365404393524 109.64042886905372 5.6543026491999608 93.909539107349701 1.6793960682116438 53.203602703753859 24.84012751840055 40.5142622878775 71.367852672701702 49.240569771267474 3.0101132337003973 59.634809071198106 10.870974831283091 303.25758620351553 10.462047073990105 12.54298078175634 96.427319459617138 22.854816829785705 1165.6987301190384 67.427923551644199 4.544881135225296
leaf_count=2567 368 3579 193 47 4123 10 718 479 1014 1542 593 33 2989 85 1764 294 770 1722 791 30 552 215 2747 100 185 587 409 44367 2851 15
internal_value=-0.000143795 0.0648401 -0.0628645 0.0702094 -0.028124 -0.0420985 -0.0750449 0.0361179 0.023777 -0.0289926 0.0766139 0.049267 -0.0403085 -0.0349233 -0.0464751 0.0619755 -0.0129923 -0.0147418 0.0131138 -0.0100484 0.0514337 0.00190192 0.078136 0.0334969 -0.00611343 0.0593323 0.00113646 -0.0781879 -0.0669845 0.0252271
internal_weight=3607.39 1771.73 1835.66 1696.07 476.523 375.436 1359.13 268.237 101.088 274.677 1427.84 170.678 160.89 98.7383 67.426 134.481 113.787 111.882 97.5591 31.3123 166.261 60.1115 1293.36 90.0766 14.2224 106.627 25.8649 1260.4 94.6978 10.1992
internal_count=75739 12499 63240 9932 12638 11156 50602 2719 1482 7033 7213 1234 4531 2666 2034 887 2502 2492 1485 632 1187 1006 6326 1114 270 635 439 47936 3569 48
is_linear=0
shrinkage=0.05


Tree=3
num_leaves=31
num_cat=0
split_feature=3 3 1 1 1 3 1 6 6 3 3 2 2 0 3 1 1 6 6 6 1 7 6 6 3 2 0 6 6 3
split_gain=4950.73 262.358 232.35 120.512 63.0692 54.4081 19.3207 18.5625 14.6876 13.7344 12.7155 11.1722 10.9713 10.1061 8.06346 8.50707 7.87122 9.86506 7.67569 7.34126 7.25512 11.2043 6.05668 5.65854 5.62089 4.93048 4.49723 4.42158 4.3315 4.89889
threshold=13.500000000000002 26.500000000000004 12.500000000000002 12.500000000000002 10.500000000000002 10.500000000000002 23.500000000000004 0.36666666666666675 0.22500000000000003 10.500000000000002 46.500000000000007 0.12702911347150805 0.1734312176704407 5.3005981668637201 5.5000000000000009 14.500000000000002 18.500000000000004 0.29166666666666669 0.29166666666666669 1.0000000180025095e-35 3.5000000000000004 0.55000000000000016 1.0000000180025095e-35 0.22500000000000003 43.500000000000007 0.22927807271480563 3.2427570530677401 0.18333333333333338 0.36666666666666675 20.500000000000004
decision_type=2 2 2 2 2 2 2 2 2 2 2 2 2 2 2 2 2 2 2 2 2 2 2 2 2 2 2 2 2 2
left_child=2 3 7 8 10 12 19 9 -2 20 -3 -8 -4 -12 25 -16 17 -6 -15 -5 -1 -22 -13 -11 -19 -14 -26 -7 -10 -30
right_child=1 4 5 6 16 27 11 -9 28 23 13 22 14 18 15 -17 -18 24 -20 -21 21 -23 -24 -25 26 -27 -28 -29 29 -31
leaf_value=0.07134148787985585 -0.0058743350872215213 0.0081695164670687014 -0.072266672099875126 -0.035626723800721197 -0.068059287904625468 -0.020786841679923136 0.047792075431086815 0.075412015783418537 0.025609391679600385 0.014119210531645943 0.0036129490994095135 -0.050276512884476765 -0.032355606365693339 -0.065143817588368944 0.058192588624414114 0.02161747342678471 -0.07469576992185982 -0.002340926957895546 -0.012226753105820439 -0.0034873700873099232 0.067862733452054944 0.046506489917534775 -0.034086168899146091 0.051247995053288267 0.056088360556811018 0.046522446260335582 -0.061447112071549084 0.0023007331804122139 0.063389838548267588 0.017971193598713256
leaf_weight=277.44822883605957 25.744853194802999 21.282598169054836 2.3404817063128567 29.64025223441422 95.139923457521945 48.267810480669141 3.214750727522186 764.26967559754848 30.550359274726361 17.239222513511777 10.911657456308602 215.01623430976178 2.0129188904538742 26.356305728433654 18.809728030115366 102.71045447443612 1102.6566208484583 9.6525331679731607 9.2605575844645482 44.359001423697919 161.09015607228503 99.255938122048974 78.983892918331549 25.353934463579208 0.87542164046317417 125.52116998517886 11.572210847865788 36.358871302567422 23.694325741846118 7.9220359148457637
leaf_count=847 469 389 42 799 3792 1189 61 4396 406 215 182 7251 23 990 189 1505 44367 188 238 1002 1249 671 2227 276 13 1158 443 739 305 118
internal_value=-0.000263881 -0.0592068 0.0609992 -0.0267554 -0.0707772 0.0238096 -0.0392215 0.0702926 0.0258839 0.0635513 -0.023844 -0.0449132 0.0354829 -0.0384872 0.0364955 0.0272788 -0.0733861 -0.061069 -0.0513851 -0.0163607 0.0657159 0.0597207 -0.0459269 0.0362204 -0.030976 0.0452775 -0.053181 -0.0108675 0.0390357 0.0520094
internal_weight=3427.51 1746.83 1680.68 459.126 1287.71 336.021 371.214 1344.66 87.9116 580.387 67.8111 297.215 251.395 46.5285 249.054 121.52 1219.9 117.24 35.6169 73.9993 537.794 260.346 294 42.5932 22.1002 127.534 12.4476 84.6267 62.1667 31.6164
internal_count=75739 63240 12499 12638 50602 4845 11340 7654 1298 3258 1799 9539 2917 1410 2875 1694 48803 4436 1228 1801 2767 1920 9478 491 644 1181 456 1928 829 423
is_linear=0
shrinkage=0.05


Tree=4
num_leaves=31
num_cat=0
split_feature=3 8 3 1 1 1 8 8 3 3 3 3 1 2 0 2 1 3 8 1 1 3 8 7 1 8 0 1 0 8
split_gain=4310.25 443.036 228.581 116.25 104.269 52.2386 48.6292 31.4534 24.1553 20.8649 12.3629 11.1898 11.1026 8.63284 8.58723 7.81216 7.03954 5.98239 5.79602 5.3476 5.31627 8.85974 5.00652 4.98167 4.89568 4.49167 4.33438 4.30255 4.08228 3.80278
threshold=13.500000000000002 121.00000000000001 26.500000000000004 13.500000000000002 14.500000000000002 10.500000000000002 121.00000000000001 162.50000000000003 8.5000000000000018 18.500000000000004 46.500000000000007 10.500000000000002 48.500000000000007 0.22651104629039767 5.3005981668637201 0.12702911347150805 23.500000000000004 16.500000000000004 162.50000000000003 29.500000000000004 18.500000000000004 47.500000000000007 190.50000000000003 0.45000000000000007 11.500000000000002 173.50000000000003 8.9550829704938071 6.5000000000000009 9.5074084870799656 174.50000000000003
decision_type=2 2 2 2 2 2 2 2 2 2 2 2 2 2 2 2 2 2 2 2 2 2 2 2 2 2 2 2 2 2
left_child=1 -1 3 7 11 10 -5 -2 13 15 18 27 -11 -6 22 -8 -17 -9 -4 -10 21 29 -12 -21 -19 -16 -20 -3 -27 -7
right_child=2 4 5 6 8 20 9 17 19 12 14 -13 -14 -15 25 16 -18 24 26 23 -22 -23 -24 -25 -26 28 -28 -29 -30 -31
leaf_value=-0.055148100186490481 -0.052466017659995284 0.072074683795756461 -0.051693659107688986 -0.070259004550427148 -0.024657335976382731 -0.063414875643066623 0.058978138912455937 0.04874742485010862 0.0284893375504238 -0.024519997165605149 0.0083162184832155355 0.051474313399332443 -0.052359693780174257 0.047715894529947012 -0.07619674336364908 0.0095543545295071752 -0.021224509670336997 0.029205397121982831 -0.019441168866398861 0.009485720283325845 -0.07145303920486909 -0.069052645953347855 -0.092922559121748599 -0.035619705613310876 -0.01232634707311412 -0.052978790386488339 0.033895924156726841 0.065172286389085038 -0.001627318473228807 -0.026657720065306725
leaf_weight=82.870684643741697 12.248929627239702 921.625578337349 3.5763472188264158 94.02504233783111 4.2338342759758225 10.227800532011313 3.7767182961106291 35.897672198712826 36.253189021721482 62.232325214426965 10.472204152494667 83.59282454662025 84.357715706632007 153.76628498919308 12.822120368480684 24.062091058120131 81.496598486148287 39.978129981085658 5.4344937000423696 48.69454593770206 1044.9547197677894 78.908429721486755 1.3823905084282149 7.0016953628510228 8.6268114484846574 13.004801154835151 12.734363980591295 299.02042526192963 5.510022245347499 22.551346324384212
leaf_count=2567 378 3579 114 4123 47 353 10 425 515 1542 133 887 2989 1187 620 456 2036 512 106 809 44367 3490 49 161 167 468 169 2747 140 593
internal_value=-0.000142823 0.0574961 -0.056703 -0.026097 0.0635024 -0.0678949 -0.0395086 0.0224131 0.033919 -0.0282112 -0.0242574 0.0691718 -0.0405408 0.0457766 -0.0397373 -0.0116804 -0.0142085 0.0332671 0.00648951 0.0135437 -0.0703448 -0.0599762 -0.00348946 0.00381542 0.021834 -0.0534497 0.0179422 0.0703838 -0.0376966 -0.0381267
internal_weight=3305.34 1637.06 1668.28 446.702 1554.19 1221.58 349.95 96.7515 249.95 255.925 64.9367 1304.24 146.59 158 43.1915 109.335 105.559 84.5026 21.7452 91.9494 1156.64 111.688 11.8546 55.6962 48.6049 31.3369 18.1689 1220.65 18.5148 32.7791
internal_count=75739 12499 63240 12638 9932 50602 11156 1482 2719 7033 1799 7213 4531 1234 1410 2502 2492 1104 389 1485 48803 4436 182 970 679 1228 275 6326 608 946
is_linear=0
shrinkage=0.05


Tree=5
num_leaves=31
num_cat=0
split_feature=3 8 3 1 1 1 8 8 6 3 3 6 3 6 6 2 3 1 2 1 2 3 6 9 2 1 3 6 6 2
split_gain=3822.74 356.399 233.725 104.633 70.588 52.4227 48.7558 30.7675 28.1763 15.4753 15.0803 10.1761 10.0071 9.90476 8.80087 8.55136 7.83716 7.44769 6.16944 5.9631 7.65749 8.77196 5.64837 5.64272 5.43557 5.43149 9.08869 5.68141 5.25221 5.22616
threshold=12.500000000000002 121.00000000000001 26.500000000000004 23.500000000000004 11.500000000000002 10.500000000000002 152.50000000000003 121.00000000000001 0.22500000000000003 9.5000000000000018 18.500000000000004 0.22500000000000003 48.500000000000007 0.18333333333333338 0.36666666666666675 0.36145088076591497 7.5000000000000009 7.5000000000000009 0.12702911347150805 43.500000000000007 0.27168132364749914 5.5000000000000009 1.0000000180025095e-35 4.5000000000000009 0.5860724449157716 18.500000000000004 47.500000000000007 0.36666666666666675 0.18333333333333338 0.21453634649515155
decision_type=2 2 2 2 2 2 2 2 2 2 2 2 2 2 2 2 2 2 2 2 2 2 2 2 2 2 2 2 2 2
left_child=1 -1 3 6 13 12 -2 -5 17 19 18 -11 29 16 15 -10 -3 -8 -9 -6 21 -21 -12 -22 -20 26 27 -7 -25 -4
right_child=2 4 5 7 9 25 8 10 14 11 22 -13 -14 -15 -16 -17 -18 -19 24 20 23 -23 -24 28 -26 -27 -28 -29 -30 -31
leaf_value=-0.053395455295776176 -0.053202247532099546 0.060332317708341479 0.059619370381404801 -0.067325531705025823 0.052839642732683281 -0.043999844713861973 0.021756454831098129 0.044234548909449986 0.055350158515904982 0.0014704394815830959 -0.050380282400895683 0.040069599553248493 -0.035392476965247409 0.068743840972128836 0.04823923279240603 0.0074193338721779793 0.029539178391945101 -0.021418923053034319 -0.021912501781551422 -0.084631980815382771 0.045614134305136694 0.026232567785900031 -0.026134340138348585 -0.044398220177547326 0.04374750990031398 -0.068108159785893921 -0.065768060044328419 0.010229154915866345 0.033242430975376304 -0.0047888547635333463
leaf_weight=70.206972328422125 28.983778885100037 97.526255803182721 3.7556397188454893 82.881263558811042 131.68142558820546 26.127613800112158 13.069337442517279 3.9346141908317795 12.172601213678716 37.687902734614909 85.238121844129637 31.219723402522504 41.297572373878211 1078.1053073676303 49.293345206417143 39.509678983129561 26.217614287510514 42.368033559061587 91.791578280040994 2.6674325261265022 69.314110409468412 5.388712446205318 33.445959161967039 3.4854324925690872 3.2640591049566856 1001.6417396814795 75.26378475385718 5.925141259096562 5.8078921400010586 19.513944962993264
leaf_count=2265 1037 432 30 3823 1160 816 161 13 150 640 3080 418 1400 5895 652 616 173 924 2269 37 516 58 879 50 49 44202 3500 117 40 389
internal_value=0.000481351 0.0566936 -0.0523378 -0.0231779 0.061884 -0.0644128 0.00636271 -0.0413999 0.0174003 0.0396167 -0.0315285 0.0189584 -0.0206167 0.067206 0.0331245 0.0187084 0.0538082 -0.0112403 -0.0171183 0.0461363 0.0359509 -0.0104753 -0.0435476 0.0407089 -0.0196578 -0.0669628 -0.0562724 -0.0339753 0.00412355 0.00560644
internal_weight=3218.79 1559.31 1659.48 485.952 1489.1 1173.53 185.397 300.556 156.413 287.253 217.674 68.9076 64.5672 1201.85 100.976 51.6823 123.744 55.4374 98.9903 218.345 86.6636 8.05614 118.684 78.6074 95.0556 1108.96 107.317 32.0528 9.29332 23.2696
internal_count=75791 11684 64107 13653 9419 50454 3540 10113 2503 2919 6290 1058 1819 6500 1418 766 605 1085 2331 1861 701 95 3959 606 2318 48635 4433 933 90 419
is_linear=0
shrinkage=0.05


Tree=6
num_leaves=31
num_cat=0
split_feature=1 2 8 2 8 2 8 1 2 6 7 1 7 6 1 0 2 0 6 0 7 6 1 7 6 1 7 6 0 0
split_gain=2808.89 322.045 282.627 118.694 102.094 71.7705 52.445 48.7205 33.8228 24.8394 21.0605 18.3887 16.7632 14.2422 12.6961 8.61369 8.59498 8.48482 7.6495 7.12824 7.10328 6.93098 6.65364 6.0503 5.61178 5.52727 5.51165 5.21192 5.04812 4.56536
threshold=12.500000000000002 0.4590046107769013 121.00000000000001 0.11355902627110483 121.00000000000001 1.0000000180025095e-35 121.00000000000001 32.500000000000007 0.55593562126159679 0.36666666666666675 0.36666666666666675 4.5000000000000009 0.70833333333333337 0.36666666666666675 25.500000000000004 4.9882812629702018 0.54665943980216991 5.3005981668637201 0.22500000000000003 4.9882812629702018 0.45000000000000007 1.0000000180025095e-35 9.5000000000000018 1.0000000180025095e-35 0.22500000000000003 18.500000000000004 0.36666666666666675 0.36666666666666675 4.504162239801194 8.526859728460165
decision_type=2 2 2 2 2 2 2 2 2 2 2 2 2 2 2 2 2 2 2 2 2 2 2 2 2 2 2 2 2 2
left_child=2 5 17 24 -3 -2 -7 10 14 11 -8 -5 21 15 20 -12 22 19 23 -1 -6 -13 -14 -9 28 -15 -16 29 -4 -22
right_child=1 4 3 9 8 6 7 18 -10 -11 13 12 16 25 26 -17 -18 -19 -20 -21 27 -23 -24 -25 -26 -27 -28 -29 -30 -31
leaf_value=-0.066685969289824398 -0.066963121288476812 -0.059200717939473582 0.016559583436792761 0.061029888262175591 0.043119101792748582 -0.062764349249701396 0.014412346062358614 -0.039258032445265989 0.04190435864162767 0.066613428923520304 0.024223031414104024 0.032185678399970767 0.0094401399850520765 0.049314232485659547 0.0014564836136518285 -0.041411666997866664 0.036784891311984716 -0.056824222517776003 -0.026276197826973598 0.039405207542949253 0.013493999674585129 0.053192520442565831 -0.052453774479813808 -0.051018871039372415 -0.0060873181087574878 -0.017800109803526799 -0.022747131943066174 0.035503916809997572 -0.056600695423111948 -0.029735982447586157
leaf_weight=2.4508877979242234 526.96097380010178 52.832975180353969 2.6783186742104617 303.666727732867 23.985103625804186 255.44674583844608 55.896674742922187 211.0391902201809 89.614583927206695 733.41051598638296 5.4721353934146455 51.066407632082701 14.217199152335526 7.595619651488958 69.181381606496871 57.784939250443131 19.729472324252129 55.972120403312147 59.718286631628871 4.4727567471563816 14.459350105375053 169.91857330966741 6.25139848422259 226.96118599665351 12.558066681027411 5.1462295232340693 35.638012815732509 11.833643611520527 19.706863070372492 10.572990527376531
leaf_count=99 25161 2160 56 1311 326 11168 1114 7527 1060 4549 99 524 182 104 1338 1842 165 2040 1863 32 218 1536 125 8543 304 157 970 178 808 232
internal_value=0.000517923 -0.042248 0.05321 0.0580964 0.00406553 -0.0523541 -0.043656 -0.0359034 0.0171589 0.0605439 -0.00888466 0.0526632 0.0429356 -0.0260195 0.00377359 -0.0357339 0.0132357 -0.0503653 -0.0430634 0.00185019 0.02194 0.0483381 -0.00946313 -0.0453522 -0.0328394 0.0222078 -0.00677261 0.00816083 -0.0478473 -0.00476519
internal_weight=3116.24 1720.14 1396.1 1333.2 308.118 1412.02 885.061 629.614 255.285 1298.26 131.896 564.85 261.183 75.9989 165.67 63.2571 40.1981 62.8958 497.719 6.92364 60.8511 220.985 20.4686 438 34.9432 12.7418 104.819 36.866 22.3852 25.0323
internal_count=75791 64060 11731 9560 6482 57578 32417 21249 4322 8392 3316 3843 2532 2202 3262 1941 472 2171 17933 131 954 2060 307 16070 1168 261 2308 628 864 450
is_linear=0
shrinkage=0.05


Tree=7
num_leaves=31
num_cat=0
split_feature=3 8 3 1 1 1 8 3 8 6 6 3 2 6 6 3 7 6 3 1 3 3 3 7 8 6 2 8 8 8
split_gain=3071.34 303.654 158.106 68.7126 65.5381 43.6697 29.7201 23.8114 20.8091 13.1591 11.2927 10.0208 8.91501 7.24678 6.50064 5.56333 4.73026 4.53068 4.49354 4.27237 6.67177 4.22287 4.15715 3.9928 3.57113 4.46876 3.45238 3.44708 3.45453 8.64545
threshold=13.500000000000002 121.00000000000001 26.500000000000004 13.500000000000002 15.500000000000002 10.500000000000002 121.00000000000001 9.5000000000000018 159.50000000000003 0.22500000000000003 0.22500000000000003 10.500000000000002 0.12702911347150805 0.22500000000000003 0.18333333333333338 48.500000000000007 0.36666666666666675 0.55000000000000016 6.5000000000000009 18.500000000000004 47.500000000000007 18.500000000000004 7.5000000000000009 0.29166666666666669 174.50000000000003 0.22500000000000003 0.21453634649515155 54.500000000000007 64.500000000000014 65.500000000000014
decision_type=2 2 2 2 2 2 2 2 2 2 2 2 2 2 2 2 2 2 2 2 2 2 2 2 2 2 2 2 2 2
left_child=1 -1 4 11 8 15 -6 18 -2 12 -10 14 -8 16 22 26 -9 -12 -5 20 24 -14 -3 -17 -7 -26 -4 -25 -29 -30
right_child=2 3 5 7 6 19 9 13 10 -11 17 -13 21 -15 -16 23 -18 -19 -20 -21 -22 -23 -24 27 25 -27 -28 28 29 -31
leaf_value=-0.046154026372431572 -0.045329294100561149 0.055321873549350864 0.045847170699584619 0.048122943230972291 -0.061367491364672046 -0.059009546143797734 0.035868194871856045 0.0057576521599142739 -0.0073766352226324319 -0.0058942898599202214 0.024648094695953304 0.043807328142435008 -0.025356889526110777 0.029074316711222622 0.064034673963098615 -0.063032569986787176 -0.032521800309039443 0.061859720291920495 0.030933763310144181 -0.0630898572180697 -0.060745880785538456 -0.041373302130774899 0.028081723564944157 0.031400458141192057 -0.044621714934167306 0.00092661650032179908 -0.0081060264627272338 -0.078547408240287608 0.076016267338342033 -0.030202899597463823
leaf_weight=76.009234908793587 14.74573603319004 96.654832599684596 3.4940436687320497 124.09885682351887 80.443795209052041 9.1308936129789817 4.5687226119334801 36.682830062694848 29.002541194669902 59.748968570493162 55.300472418777645 74.717064318712801 69.042920827982016 29.122515457682312 984.76772689633071 7.7108977064490309 10.346690768375991 9.5998431434854847 54.814130243845284 932.50666046550032 70.409956733987201 101.88550286222016 16.379623171873391 2.6671205558814099 10.699204643256964 10.84153400082141 19.581885024905205 3.0301212766207781 2.0687942011281875 25.882769510615617
leaf_count=2624 528 464 30 936 3974 349 36 659 511 1366 731 850 1843 431 5677 358 238 124 648 44202 3500 3577 120 44 348 236 389 128 13 857
internal_value=0.000537241 0.0512242 -0.0495249 0.056409 -0.0236049 -0.0595418 -0.0351326 0.0328898 0.00989005 -0.0261614 0.0185612 0.0615252 -0.0330614 0.00947356 0.0627311 -0.0196058 -0.00266399 0.0301523 0.0428566 -0.0620315 -0.0522676 -0.0349038 0.0513746 -0.0305798 -0.0328049 -0.0216971 6.33014e-05 -0.0231429 -0.0278384 -0.0223412
internal_weight=3025.96 1503.59 1522.36 1427.58 424.339 1098.02 315.69 255.065 108.649 235.246 93.9029 1172.52 175.497 76.152 1097.8 64.4356 47.0295 64.9003 178.913 1033.59 101.082 170.928 113.034 41.3597 30.6716 21.5407 23.0759 33.6488 30.9817 27.9516
internal_count=75791 12647 63144 10023 12690 50454 10796 2912 1894 6822 1366 7111 5456 1328 6261 1819 897 855 1584 48635 4433 5420 584 1400 933 584 419 1042 998 870
is_linear=0
shrinkage=0.05


Tree=8
num_leaves=31
num_cat=0
split_feature=3 8 3 1 1 1 8 8 6 3 6 6 3 6 3 7 2 3 6 0 0 8 6 8 1 3 9 1 2 1
split_gain=2738.94 248.239 176.362 72.954 52.6599 41.1277 32.0416 18.2891 15.576 13.2085 8.5708 7.94579 7.82646 6.76291 6.2792 5.88778 5.7743 5.44813 4.82206 4.70431 9.40013 5.55196 4.52984 4.4337 4.1148 5.95458 3.8459 3.63552 3.40434 3.40283
threshold=12.500000000000002 121.00000000000001 26.500000000000004 13.500000000000002 11.500000000000002 10.500000000000002 121.00000000000001 157.50000000000003 0.22500000000000003 9.5000000000000018 0.22500000000000003 0.36666666666666675 16.500000000000004 0.22500000000000003 8.5000000000000018 0.29166666666666669 0.12702911347150805 18.500000000000004 0.55000000000000016 5.3005981668637201 8.9550829704938071 162.50000000000003 1.0000000180025095e-35 201.50000000000003 18.500000000000004 47.500000000000007 4.5000000000000009 43.500000000000007 0.21453634649515155 7.5000000000000009
decision_type=2 2 2 2 2 2 2 2 2 2 2 2 2 2 2 2 2 2 2 2 2 2 2 2 2 2 2 2 2 2
left_child=1 -1 3 7 11 15 -5 -2 12 28 29 14 16 -11 -3 -4 -8 -10 -12 -17 -21 -22 23 -16 25 -7 -19 -14 -6 -9
right_child=2 4 5 6 9 24 8 10 17 13 18 -13 27 -15 22 19 -18 26 -20 20 21 -23 -24 -25 -26 -27 -28 -29 -30 -31
leaf_value=-0.044124925361097814 -0.039478601063255347 0.057891241422848516 -0.055952224525620292 -0.057545369597854501 -0.014259050767827398 -0.031618985181444237 0.048839424588154004 0.016730752699028371 0.011026687001994599 0.001189619389324302 0.026190847151753762 0.063804618546490985 -0.024298273458987912 0.033514898665811865 0.035541982543794155 0.020395049324901833 -0.018781538045197756 -0.021339021728810501 0.061401074624118146 -0.043564399082868646 -0.050639894467439064 0.012974940920113053 0.047796302952265564 -0.026065954433012729 -0.060950810324041461 -0.058359022933371356 0.039273042343883811 -0.04226918537256566 0.04248105857115167 -0.019610476971577279
leaf_weight=65.897540850099176 13.349143020343034 364.55648211529478 8.9259229768067581 87.986075321212411 2.6789690237492314 30.037187774432823 3.3473756909370413 12.719259593635799 35.707732413895428 35.624634819105268 58.488167073577642 631.99176495196298 40.368355020415038 29.644775021355599 9.2561516221612674 9.2268148260191065 55.513804707676172 33.105732096359134 11.662735565565525 20.71268100827001 4.1271938607096699 20.297784792259336 67.85012870747596 4.2663904987275592 895.06059502006974 67.841806177399121 2.8417435456067315 92.925722573651001 200.12964998278767 13.050673238933085
leaf_count=2265 456 1976 400 4405 42 933 9 161 693 640 746 3882 1092 418 86 126 1396 845 160 746 168 379 519 37 44202 3500 49 3377 1819 264
internal_value=0.000506587 0.0506277 -0.0461328 -0.020332 0.0552666 -0.0573955 -0.0314165 0.0153549 -0.022702 0.0354354 0.022986 0.0601986 -0.0301211 0.0158715 0.0550881 -0.0183159 -0.014936 -0.00280652 0.0320446 -0.0121365 -0.0187864 0.00222567 0.0425298 0.0161045 -0.0598864 -0.050153 -0.0165475 -0.0368267 0.0417316 -0.00167354
internal_weight=2929.19 1411.9 1517.3 461.067 1346 1056.23 351.797 109.27 263.81 268.078 95.9208 1077.92 192.155 65.2694 445.929 63.2904 58.8612 71.6552 70.1509 54.3645 45.1377 24.425 81.3727 13.5225 992.94 97.879 35.9475 133.294 202.809 25.7699
internal_count=75791 11684 64107 13653 9419 50454 11866 1787 7461 2919 1331 6500 5874 1058 2618 1819 1405 1587 906 1419 1293 547 642 123 48635 4433 894 4469 1861 425
is_linear=0
shrinkage=0.05


Tree=9
num_leaves=31
num_cat=0
split_feature=3 8 3 1 1 1 3 8 8 6 6 3 1 3 6 7 6 7 2 0 0 0 8 3 6 1 3 7 2 10
split_gain=2456.18 248.583 134.084 68.3312 53.6606 38.9458 20.8617 20.3301 19.6943 13.5149 9.25644 7.95094 7.06041 6.30017 5.43917 4.89091 4.75124 5.64147 4.63345 4.61208 7.72297 4.59598 4.37943 4.18216 4.16167 3.90666 6.05114 3.82342 3.74006 3.5162
threshold=13.500000000000002 121.00000000000001 26.500000000000004 13.500000000000002 19.500000000000004 10.500000000000002 7.5000000000000009 159.50000000000003 121.00000000000001 1.0000000180025095e-35 0.22500000000000003 8.5000000000000018 42.500000000000007 18.500000000000004 0.36666666666666675 0.29166666666666669 0.22500000000000003 0.36666666666666675 0.12702911347150805 5.3005981668637201 8.9550829704938071 6.1620102701928667 162.50000000000003 9.5000000000000018 0.18333333333333338 18.500000000000004 47.500000000000007 0.45000000000000007 0.36145088076591497 173.50000000000003
decision_type=2 2 2 2 2 2 2 2 2 2 2 2 2 2 2 2 2 2 2 2 2 2 2 2 2 2 2 2 2 2
left_child=1 -1 4 10 7 15 -5 -2 -6 -9 11 -3 16 18 28 -4 17 -8 -10 29 -21 -13 -22 -12 -15 26 -7 -14 -11 -17
right_child=2 3 5 6 8 25 12 9 13 14 23 21 27 24 -16 19 -18 -19 -20 20 22 -23 -24 -25 -26 -27 -28 -29 -30 -31
leaf_value=-0.041840949202563163 -0.042353743352571603 0.051619306490697736 -0.05270514995831227 0.041415081037314311 -0.05690888724793236 -0.029651187578384232 0.028683914852559222 -0.015763763341205248 0.041547253361908919 0.036631408926753053 0.060895727096273659 -0.051748151182508077 0.0035901262292956228 -0.039505813949812701 0.039033710636950054 0.045248052144368528 0.037373914007186745 -0.019229705473913374 -0.018225846811500929 -0.041416013631131558 -0.047144310165360997 0.027793536547297132 0.0098470255509119434 0.050600713330928609 -0.019332319906736898 -0.05908219782807949 -0.056912087263743527 -0.040706259397008247 0.0042213275945285145 -0.015429665209684694
leaf_weight=74.090853219560813 19.149139168672264 144.22076368145645 8.4767621979117376 139.12219817377627 69.616160065197619 29.630626761820167 14.388800119049849 29.009773528203368 3.3732520043849936 12.086477948352693 805.35243165446445 1.9588669762015367 47.072045770473778 86.058500677871052 34.537205116823316 5.5780744161456806 31.547357755713165 10.720888856798409 83.421179486380424 20.330859270645306 4.044511414133015 24.909453203901649 20.238011049805209 112.41763108130544 36.368913730140775 858.17123429299681 65.035545847262256 5.4337525442242613 33.778462167829275 4.1742645762860775
leaf_count=2624 742 797 400 1140 3760 933 190 616 11 162 4892 10 801 3201 486 40 442 212 2171 746 168 268 379 1144 977 44202 3500 127 564 86
internal_value=0.000566993 0.0473072 -0.0457842 0.0522469 -0.021551 -0.0555044 0.0285768 0.00517349 -0.0338726 0.0134916 0.0576442 0.0469669 0.012215 -0.0262075 0.0240472 -0.0173799 0.0244562 0.00822661 -0.0159028 -0.0118719 -0.0186808 0.0219945 0.000354515 0.0596347 -0.033513 -0.0580189 -0.0483794 -0.000994046 0.0127621 0.0192763
internal_weight=2834.31 1411.24 1423.08 1337.14 407.399 1015.68 248.285 128.561 278.838 109.412 1088.86 171.089 109.163 209.222 80.4021 62.8425 56.657 25.1097 86.7944 54.3657 44.6134 26.8683 24.2825 917.77 122.427 952.837 94.6662 52.5058 45.8649 9.75234
internal_count=75791 12647 63144 10023 12690 50454 2912 2570 10120 1828 7111 1075 1772 6360 1212 1819 844 402 2182 1419 1293 278 547 6036 4178 48635 4433 928 726 126
is_linear=0
shrinkage=0.05


Tree=10
num_leaves=31
num_cat=0
split_feature=3 8 3 0 8 6 3 3 0 0 6 3 2 6 6 3 8 0 3 6 7 7 10 2 6 8 0 2 3 3
split_gain=2186.4 220.961 126.958 44.282 42.6196 35.9385 17.1024 15.9067 14.7262 14.6466 10.3858 8.82344 7.19557 6.75405 6.36329 6.03933 5.41377 4.94793 4.89962 4.60931 5.41328 3.73443 3.35518 3.33376 2.90965 5.13241 2.95053 2.90523 2.88394 2.872
threshold=13.500000000000002 121.00000000000001 26.500000000000004 6.2930067457586674 121.00000000000001 0.22500000000000003 6.5000000000000009 10.500000000000002 7.1219448214979222 9.1401966734911735 0.36666666666666675 16.500000000000004 0.19480920583009723 0.29166666666666669 0.22500000000000003 11.500000000000002 161.50000000000003 2.7953873037861094 7.5000000000000009 0.36666666666666675 0.45000000000000007 0.45000000000000007 511.50000000000006 0.55944058299064647 0.29166666666666669 172.50000000000003 5.920980819782879 0.58213162422180187 42.500000000000007 41.500000000000007
decision_type=2 2 2 2 2 2 2 2 2 2 2 2 2 2 2 2 2 2 2 2 2 2 2 2 2 2 2 2 2 2
left_child=1 -1 4 6 -2 11 -3 10 -7 24 18 12 -6 -11 -9 -8 -15 -13 -5 20 -10 -20 -23 -19 -4 -26 -27 -14 -28 -18
right_child=2 3 9 7 5 8 15 14 19 13 -12 17 27 16 -16 -17 29 23 21 -21 -22 22 -24 -25 25 26 28 -29 -30 -31
leaf_value=-0.039553432606361245 -0.051859131020197673 0.042302576370149732 -0.056909179144108785 0.052211690594604822 0.049127696547857314 -0.013269557748657349 0.019299505758201881 0.008179985576898717 0.037852270938503851 -0.042001576991370193 0.059689653619420441 -0.039161532801464172 -0.016032702139819412 -0.064811191529581591 0.040401883633174408 -0.0095729553927390229 0.027785476254581928 -0.022525503664844355 0.053056952673515435 0.037554797931570801 -0.0011988051032333193 0.034999433157175734 -0.013138100395853983 0.041066428133527511 -0.062262260306982009 -0.048837700672458462 -0.00058663006433731411 0.053162153493082766 -0.036825087694688445 -0.014475870091727339
leaf_weight=73.051937837561127 86.547970914543839 85.880052326247096 826.3902236619615 346.33262154832482 5.0332753951952318 42.766374303027987 62.596904966980219 20.334225027821958 13.51048970222473 44.479657235555351 578.14116836059839 86.81646592359175 45.891305167227983 3.3231571395881501 62.16270352108404 25.48584789223969 7.5443145832978216 53.733278101775795 31.943124856799841 32.914708041585982 25.860932035371661 56.330929722636938 3.8684085048735133 2.1431623985990873 33.903871618211269 26.234441161854193 8.2286680988036114 1.5688146855682124 16.497025024145842 8.6059015099890512
leaf_count=2624 4542 609 43982 2116 31 964 831 307 207 1927 3910 3270 1154 165 850 531 158 1426 333 519 497 490 32 32 1795 1398 237 17 728 305
internal_value=-0.000259815 0.0450125 -0.0446786 0.0498651 -0.0208339 -0.0121787 0.0264255 0.053575 0.00998687 -0.0543805 0.0552885 -0.0252441 -0.00771691 -0.0312503 0.0324597 0.0109456 -0.0066929 -0.031692 0.0494855 0.023746 0.0122018 0.0392385 0.0319061 -0.0200864 -0.0560038 -0.0471872 -0.0371577 -0.0137454 -0.024765 0.00526584
internal_weight=2718.12 1346.13 1371.99 1273.08 396.787 310.239 173.963 1099.11 115.053 975.207 1016.62 195.186 52.4934 63.953 82.4969 88.0828 19.4734 142.693 438.475 72.2861 39.3714 92.1425 60.1993 55.8764 911.254 84.864 50.9601 47.4601 24.7257 16.1502
internal_count=75987 12633 63354 10009 12659 8117 1971 8038 2187 50695 6881 5930 1202 2555 1157 1362 628 4728 2971 1223 704 855 522 1458 48140 4158 2363 1171 965 463
is_linear=0
shrinkage=0.05


Tree=11
num_leaves=31
num_cat=0
split_feature=3 8 3 1 1 1 8 3 8 6 1 6 8 6 2 6 3 1 3 0 0 6 1 3 6 8 0 3 10 2
split_gain=1982.67 202.127 116.683 66.83 46.2189 26.186 22.9323 17.298 11.5487 11.0073 8.72282 8.48402 8.29648 11.7543 6.55089 5.80942 4.94827 4.58399 4.40516 3.03762 3.29024 2.93938 2.92228 6.21914 3.35371 2.88195 4.32999 2.85744 2.82791 2.54775
threshold=13.500000000000002 93.000000000000014 26.500000000000004 13.500000000000002 10.500000000000002 12.500000000000002 90.500000000000014 6.5000000000000009 159.50000000000003 1.0000000180025095e-35 4.5000000000000009 0.22500000000000003 161.50000000000003 0.22500000000000003 0.12702911347150805 0.22500000000000003 11.500000000000002 19.500000000000004 19.500000000000004 4.504162239801194 12.380222981171835 0.55000000000000016 18.500000000000004 47.500000000000007 0.29166666666666669 54.500000000000007 5.3918991113136086 9.5000000000000018 64.500000000000014 0.19480920583009723
decision_type=2 2 2 2 2 2 2 2 2 2 2 2 2 2 2 2 2 2 2 2 2 2 2 2 2 2 2 2 2 2
left_child=1 -1 4 10 8 12 -6 -5 -2 14 -3 27 25 19 -8 16 28 -11 -16 -14 -21 -10 23 24 29 26 -4 -12 -9 -7
right_child=2 3 5 7 6 22 9 15 21 17 11 -13 13 -15 18 -17 -18 -19 -20 20 -22 -23 -24 -25 -26 -27 -28 -29 -30 -31
leaf_value=-0.037692810907286878 -0.047754200707358509 0.058082546295094829 0.044764693495058454 0.038760404652823773 -0.051303004060642823 0.029646610512008217 0.0373154189578059 -0.027271001634910211 0.024496073516190001 0.008373941750897165 0.037431841648787885 0.051683419741447682 0.018321262847334319 0.0099752666359663247 -0.020986286036251498 0.025094499319809893 -0.015887830050044981 -0.014732798861641003 -0.037684857196772198 -0.047932831833295046 0.014756344563254012 0.061776627166402157 -0.056201237883358929 -0.055843623925473151 0.0053517415663876383 -0.058357331492589454 -0.062661177448228175 0.011640276114967478 0.01515785526143462 -0.042849918276115978
leaf_weight=72.154850735911168 5.441925222054123 574.80133598204702 1.8295465912669926 110.86967057082802 77.037086575233843 1.3250701483339096 3.7403777851723126 4.2836509300395837 45.151110239792615 33.181419133208692 52.885501024313271 352.34738730918616 2.2712762206792858 26.182492738589644 76.276987015153281 48.364728865213692 23.937875684350729 60.78010800620541 81.903435930551495 22.471604279300667 2.3080420773476353 5.9885325543582431 790.2122880218667 46.8307770449901 6.8481947323307386 18.509129492100328 1.9249333366751669 13.475225737318395 47.196017881855369 14.187900873832403
leaf_count=2620 220 2678 19 915 4283 30 34 76 634 626 474 3791 53 549 2160 692 531 1557 3059 940 47 86 44465 2840 149 956 104 176 680 543
internal_value=-0.000219546 0.0436374 -0.0432789 0.0484156 -0.0202861 -0.0528583 -0.0273867 0.0244161 0.0214929 -0.0201863 0.0540839 0.0485947 -0.0246254 -0.0139063 -0.0280861 0.0115682 0.00289389 -0.00657292 -0.0296326 -0.0370212 -0.0420938 0.0288617 -0.0553385 -0.0454853 -0.023792 -0.0502552 -0.0103129 0.0321946 0.0116273 -0.0366575
internal_weight=2624.72 1300.32 1324.4 1228.16 389.501 934.901 332.919 234.652 56.5816 255.882 993.509 418.708 75.497 53.2334 161.921 123.782 75.4175 93.9615 158.18 27.0509 24.7796 51.1396 859.404 69.1919 22.3612 22.2636 3.75448 66.3607 51.4797 15.513
internal_count=75987 12633 63354 10013 12659 50695 11719 2894 940 7436 7119 4441 2668 1589 5253 1979 1287 2183 5219 1040 987 720 48027 3562 722 1079 123 650 756 573
is_linear=0
shrinkage=0.05


Tree=12
num_leaves=31
num_cat=0
split_feature=3 8 3 8 0 6 0 6 0 3 3 3 6 7 8 2 6 7 3 0 6 3 0 2 2 0 10 2 0 0
split_gain=1794.05 168.083 132.836 40.6252 34.6493 32.346 15.452 12.7351 11.1768 9.49051 9.07876 7.69235 6.59448 5.74196 5.26261 4.74153 4.69721 5.37964 4.1943 6.98763 4.08957 3.18088 3.0406 2.82717 2.73213 2.72558 2.62647 2.60702 2.60093 2.49754
threshold=12.500000000000002 121.00000000000001 24.500000000000004 121.00000000000001 6.326947439521251 0.22500000000000003 9.1401966734911735 0.36666666666666675 7.1219448214979222 6.5000000000000009 7.5000000000000009 16.500000000000004 0.29166666666666669 0.36666666666666675 161.50000000000003 0.19480920583009723 0.36666666666666675 0.45000000000000007 40.500000000000007 5.920980819782879 0.18333333333333338 11.500000000000002 2.7953873037861094 0.26594345271587377 0.55944058299064647 3.0392671494274319 505.50000000000006 0.22927807271480563 9.6496750590059026 10.039106863689858
decision_type=2 2 2 2 2 2 2 2 2 2 2 2 2 2 2 2 2 2 2 2 2 2 2 2 2 2 2 2 2 2
left_child=1 -1 3 -2 9 11 18 10 -7 23 -6 15 -8 -12 -14 -5 17 -10 19 -4 -15 -11 -13 27 25 -24 -22 -3 -19 -17
right_child=2 4 6 5 7 8 12 -9 16 21 13 22 14 20 -16 29 -18 28 -20 -21 26 -23 24 -25 -26 -27 -28 -29 -30 -31
leaf_value=-0.036121137523138024 -0.047562544365431191 -0.043285049927594049 -0.05081445479289784 0.039328287928823924 0.049451874119372734 -0.0079602671904024404 -0.037948386106533512 0.056610581387391903 0.03693082703549206 0.017592047368415333 0.050088401035492738 -0.034964829553070884 -0.060814398933948625 0.0054176118162559146 0.0071450518590307696 -0.014417017056228216 0.03742745042015562 -0.023934213133212156 -0.054506085379022955 -0.029810901991683611 0.034520279283280629 -0.010786938666878042 0.09462141907970828 0.04011894333516728 0.03823267047843254 -0.022241372814356057 -0.011756592816846993 0.029888316752450329 0.010066395091763812 0.016116125118925986
leaf_weight=62.40872578608105 77.450102153874468 1.9724652152508486 217.38332207055646 5.12856601178646 324.1014299383387 39.887031627818942 44.240408582612872 554.35777327837422 14.628088967408983 60.728679557330906 34.23669086676091 67.32483033608878 3.4009780939668444 19.088469457812607 17.541221760213375 54.784035664051771 37.192427000496536 8.3783089206554013 614.41809461941011 48.41912598349154 56.431304904166609 11.791156905703245 0.50487233698367973 77.769340361468494 2.0488202604465178 42.440655644983053 3.2422503903508177 3.1791687961667776 17.113635902293026 7.630278091877698
leaf_count=2250 4242 30 12575 38 2110 873 2030 4293 228 848 392 2515 180 243 502 1374 595 192 35324 2042 622 247 2 557 30 1160 40 25 305 123
internal_value=-0.000205232 0.0437892 -0.040513 -0.0153112 0.0481376 -0.00690265 -0.0504965 0.0515787 0.0135366 0.0261889 0.045197 -0.020221 -0.0270064 0.0329931 -0.00389145 -0.0068868 0.0246272 0.012761 -0.052236 -0.0469884 0.0255621 0.0129778 -0.0282395 0.0377427 -0.0181764 -0.0208675 0.0320059 0.00187159 -0.00110841 -0.0106843
internal_weight=2529.22 1209.31 1319.91 374.512 1146.9 297.062 945.403 991.458 117.199 155.441 437.1 179.862 65.1826 112.999 20.9422 67.5429 77.3125 40.12 880.221 265.802 78.762 72.5198 112.319 82.921 44.9943 42.9455 59.6736 5.15163 25.4919 62.4143
internal_count=75987 11657 64330 11677 9407 7435 52653 7700 2193 1707 3407 5242 2712 1297 682 1535 1320 725 49941 14617 905 1095 3707 612 1192 1162 662 55 497 1497
is_linear=0
shrinkage=0.05


Tree=13
num_leaves=31
num_cat=0
split_feature=3 8 3 1 1 1 8 8 3 6 8 6 1 6 3 7 3 1 1 6 7 6 8 6 3 1 1 0 0 0
split_gain=1629.09 154.13 122.407 54.0986 42.6944 28.3434 19.6879 11.248 10.6798 9.78281 7.96111 10.7448 7.86734 6.84164 5.11927 4.35862 4.08421 6.33046 3.73039 3.11592 3.07383 3.26625 3.04361 2.93826 2.90672 2.65633 2.56985 4.25814 2.47556 2.48497
threshold=12.500000000000002 93.000000000000014 24.500000000000004 13.500000000000002 10.500000000000002 12.500000000000002 121.00000000000001 157.50000000000003 5.5000000000000009 0.22500000000000003 161.50000000000003 0.22500000000000003 4.5000000000000009 0.22500000000000003 17.500000000000004 0.45000000000000007 41.500000000000007 25.500000000000004 23.500000000000004 0.55000000000000016 0.45000000000000007 0.36666666666666675 177.50000000000003 0.36666666666666675 11.500000000000002 27.500000000000004 8.5000000000000018 9.4386180696408832 12.380222981171835 4.504162239801194
decision_type=2 2 2 2 2 2 2 2 2 2 2 2 2 2 2 2 2 2 2 2 2 2 2 2 2 2 2 2 2 2
left_child=1 -1 4 12 7 10 25 -2 -5 14 -4 28 -3 15 -8 -14 17 22 20 -9 -11 -22 -7 -24 -10 -6 -17 -28 29 -12
right_child=2 3 5 8 6 16 9 19 24 18 11 -13 13 -15 -16 26 -18 -19 -20 -21 21 -23 23 -25 -26 -27 27 -29 -30 -31
leaf_value=-0.034540150493223731 -0.048542772318221052 0.056096326890040848 -0.046063873954420576 0.037293989956584554 -0.030041135180447015 -0.049153436055390798 -0.012762825687512171 0.024857915175480489 0.017426892774625311 0.032111402309065611 0.011280395622350536 0.011327785218752634 0.045660316596251631 0.049513034781377863 -0.030522210525420524 0.030440337821167198 -0.054319845316928198 -0.049873500605775577 -0.011568768467874101 0.060190865464411138 -0.01757399582034468 0.019488659954789725 -0.026395199460163207 0.016377870591147529 -0.0045764676713088504 -0.051949105104638384 0.034536117614853187 -0.022742883419787585 0.013351716440283832 -0.043116728268042616
leaf_weight=61.487154089059914 5.0536813142243764 520.83172128768638 21.213405840011546 85.761387378908694 19.028684538207017 11.385291041806338 74.048139788210392 49.608384341001511 104.09789840597659 11.717126668430863 2.3240858805365923 28.491453750059009 27.179609683342278 317.43920083902776 89.774098102294374 18.477066279388968 556.73734447042807 235.05828834330896 36.797299886588007 7.1374903135001651 11.976252730004491 11.80306464480236 20.684448439395059 4.9821007549762717 17.538202838972211 50.705615371145541 5.6432648031041008 7.6338030863553286 2.6166331507265559 21.722993578470778
leaf_count=2246 220 2619 1118 713 874 592 1842 720 1441 205 54 587 285 3672 3183 187 34007 14325 897 117 264 207 839 118 353 3148 50 91 55 958
internal_value=-0.000186552 0.0425073 -0.039299 0.0467961 -0.014969 -0.0491805 -0.0226281 0.0229363 0.0237815 -0.015734 -0.0200331 -0.0100213 0.0521162 0.0466084 -0.0224949 0.0309629 -0.0518661 -0.0468457 -0.000413463 0.0293021 0.0111507 0.000822366 -0.027637 -0.0180926 0.0142543 -0.045971 0.0183828 0.0016029 -0.0328338 -0.0378594
internal_weight=2438.96 1166.09 1272.87 1104.6 367.65 905.216 305.85 61.7996 207.397 236.116 76.3686 55.1552 897.205 376.373 163.822 58.9337 828.847 272.11 72.2937 56.7459 35.4964 23.7793 37.0518 25.6665 121.636 69.7343 31.7541 13.2771 26.6637 24.0471
internal_count=75987 11657 64330 9411 11677 52653 10620 1057 2507 6598 2772 1654 6904 4285 5025 613 49881 15874 1573 837 676 471 1549 957 1794 4022 328 141 1067 1012
is_linear=0
shrinkage=0.05


Tree=14
num_leaves=31
num_cat=0
split_feature=3 8 3 1 1 1 8 8 3 6 8 6 6 3 7 3 2 3 1 6 9 1 6 8 6 2 1 7 7 6
split_gain=1479.32 143.77 116.512 52.2452 38.8468 25.7854 18.697 10.5797 9.74465 8.50535 7.82648 9.52814 7.26303 5.55179 5.14245 4.57653 4.30133 3.99205 6.78997 3.63466 3.92531 3.54319 3.01573 2.95527 2.97193 2.93285 2.87198 7.48361 2.75096 3.09691
threshold=12.500000000000002 121.00000000000001 24.500000000000004 13.500000000000002 10.500000000000002 12.500000000000002 121.00000000000001 157.50000000000003 6.5000000000000009 0.22500000000000003 161.50000000000003 0.22500000000000003 0.36666666666666675 7.5000000000000009 0.55000000000000016 16.500000000000004 0.19480920583009723 41.500000000000007 25.500000000000004 0.18333333333333338 3.5000000000000004 23.500000000000004 0.55000000000000016 177.50000000000003 0.36666666666666675 0.14975747466087344 5.5000000000000009 0.70833333333333337 0.70833333333333337 0.36666666666666675
decision_type=2 2 2 2 2 2 2 2 2 2 2 2 2 2 2 2 2 2 2 2 2 2 2 2 2 2 2 2 2 2
left_child=1 -1 4 12 7 10 -6 -2 -5 15 -4 -12 13 26 -15 16 -8 18 23 20 -10 28 -9 -7 25 -25 -3 -28 29 -11
right_child=2 3 5 8 6 17 9 22 19 21 11 -13 -14 14 -16 -17 -18 -19 -20 -21 -22 -23 -24 24 -26 -27 27 -29 -30 -31
leaf_value=-0.033577652868401774 -0.050024200619721106 0.052696512412918672 -0.046482402791113354 0.033719622061884884 -0.04482633007740805 -0.047352896795659086 0.034072941887867074 0.024039627260953329 0.016291381659853683 0.0063700721660615387 -0.031896362789506659 0.0099259956487017607 0.055090557934644284 0.04476294459769882 0.019758857606365768 -0.027568771929961766 -0.014235935303064558 -0.053129342877027974 -0.048833989050510306 0.021653538078927993 -0.011197164047506826 -0.011391645728454898 0.059328347296953722 0.078160300722068754 0.017506555862119289 -0.028367700474970548 0.047376270104961593 0.0047830014528093198 -0.015983350655803443 0.042028595966336971
leaf_weight=60.45215091278078 4.6584170775022349 189.52101061586291 20.260180769546423 102.20518643595278 67.041773044300498 10.893468009075148 5.0351611441001287 48.913482528645545 26.073132565245032 18.331715097650889 26.121198214881588 28.452641099691391 488.94735914701596 50.625077492557466 34.62862332072109 103.03308687105891 54.281911230646074 532.114850492595 222.94758140988415 48.295123528689146 25.875775657594204 36.483625792432576 6.9094677548855534 0.66804876830429449 5.1946385079063466 19.668558115256019 81.279321699403226 11.811217009089885 7.4842281136661759 9.117256951518355
leaf_count=2250 220 972 1118 915 4022 592 37 720 387 364 1067 587 4035 579 410 3585 1403 34007 14325 720 483 897 117 9 118 830 791 115 151 161
internal_value=-0.00014169 0.0414198 -0.0380502 0.0456999 -0.0141976 -0.0479977 -0.0215492 0.0223665 0.0228557 -0.0148736 -0.019944 -0.0100918 0.0510976 0.0457903 0.0346067 -0.0211992 -0.0101352 -0.0506502 -0.0455641 0.0117792 0.00259932 -0.000493885 0.0284075 -0.0255495 -0.0162466 -0.0248683 0.049164 0.0419721 0.0108875 0.0182142
internal_weight=2347.33 1119.71 1227.61 1059.26 361.29 866.321 300.809 60.4814 202.449 233.767 74.834 54.5738 856.813 367.865 85.2537 162.35 59.3171 791.487 259.372 100.244 51.9489 71.4168 55.823 36.4247 25.5312 20.3366 282.612 93.0905 34.9332 27.449
internal_count=75987 11657 64330 9407 11677 52653 10620 1057 2505 6598 2772 1654 6902 2867 989 5025 1440 49881 15874 1590 870 1573 837 1549 957 839 1878 906 676 525
is_linear=0
shrinkage=0.05


Tree=15
num_leaves=31
num_cat=0
split_feature=3 3 8 1 1 1 8 8 6 1 3 6 6 2 3 7 3 3 1 0 0 3 1 3 7 8 8 7 6 0
split_gain=1341.2 130.626 117.097 49.9136 44.878 23.5221 14.0738 13.9094 10.6732 6.8324 5.78192 5.68013 5.62725 5.21388 5.0486 4.70807 4.35564 4.3138 3.86889 3.83821 3.82819 3.69346 3.18179 5.84744 3.03106 2.98008 2.91056 2.77564 2.49439 6.90646
threshold=11.500000000000002 26.500000000000004 121.00000000000001 11.500000000000002 19.500000000000004 11.500000000000002 121.00000000000001 93.000000000000014 1.0000000180025095e-35 33.500000000000007 43.500000000000007 0.36666666666666675 0.63333333333333341 0.35350245237350469 5.5000000000000009 0.55000000000000016 19.500000000000004 7.5000000000000009 11.500000000000002 5.3005981668637201 9.5074084870799656 18.500000000000004 18.500000000000004 49.500000000000007 0.36666666666666675 190.50000000000003 88.500000000000014 0.29166666666666669 0.36666666666666675 11.547372842603361
decision_type=2 2 2 2 2 2 2 2 2 2 2 2 2 2 2 2 2 2 2 2 2 2 2 2 2 2 2 2 2 2
left_child=2 4 -1 11 7 10 -6 -2 -9 28 -3 17 15 25 -15 16 -10 -4 -17 27 -21 -8 23 -7 -16 -11 -22 -12 29 -5
right_child=1 5 3 9 6 22 21 8 12 13 19 -13 -14 14 24 18 -18 -19 -20 20 26 -23 -24 -25 -26 -27 -28 -29 -30 -31
leaf_value=-0.032184993549104174 -0.028575458592939695 0.0048679702308670053 0.049330171887226673 0.031732107520699736 -0.045546270631294204 -0.019798837679385464 -0.012745341375986641 -0.010033084083234334 0.03650556095701301 0.012332777974319614 -0.069072398589634543 0.055170974844755576 0.055689406802974219 0.032598379769360107 0.014560771359635205 0.013529391582215342 0.0031985521453448667 0.034793353757671758 -0.024932134367598668 -0.048071950702088952 -0.058332426900812875 -0.025612529581565447 -0.051048448801147395 -0.050222040670697105 -0.019425274933126839 -0.027707108580648496 0.0038437157994734602 0.013866986664673692 0.044990520075747206 -0.030595757561865264
leaf_weight=50.731087035033852 22.07232975133229 19.66430477029644 264.92052120063454 77.066497373394668 65.53028880036436 23.958857174031436 111.3443838506937 33.684910307638347 38.353120139800012 8.6643841881304997 1.1755005945451538 452.33270947425626 11.339511153288184 40.676999213173985 32.401916309259832 27.79933125898242 13.191867028363047 63.21114243962802 8.549206489697097 21.581659570336345 2.4755241854581964 111.73893710051198 653.8412961345166 46.346966078388505 8.2259758533909899 10.022767003159968 7.8533477568998933 7.1109812427312136 30.013438732828945 4.7165983691811553
leaf_count=1881 968 443 1767 892 4214 879 2824 728 642 114 68 3755 195 297 466 414 225 755 196 1148 162 4143 44293 3203 135 152 219 147 432 61
internal_value=0.000217406 -0.0352031 0.041908 0.0456962 -0.0135203 -0.0474716 -0.0251745 0.00818152 0.0142854 0.0241687 -0.0173493 0.051538 0.0225403 0.0146728 0.0201465 0.0182636 0.0279813 0.0465298 0.00448321 -0.0282179 -0.0360912 -0.0191903 -0.0499616 -0.0398544 0.00767958 -0.00914243 -0.0110581 0.0021014 0.032662 0.0281375
internal_weight=2270.6 1227.61 1042.98 992.253 443.604 784.008 288.614 154.99 132.918 211.789 59.8613 780.464 99.233 99.992 81.3049 87.8935 51.545 328.132 36.3485 40.197 31.9105 223.083 724.147 70.3058 40.6279 18.6872 10.3289 8.28648 111.797 81.7831
internal_count=75818 65111 10707 8826 14549 50562 11181 3368 2400 2549 2187 6277 1672 1164 898 1477 867 2522 610 1744 1529 6967 48375 4082 601 266 381 215 1385 953
is_linear=0
shrinkage=0.05


Tree=16
num_leaves=31
num_cat=0
split_feature=3 8 3 1 1 1 8 8 1 6 6 9 6 3 3 6 0 6 3 1 0 10 3 1 0 10 10 1 3 6
split_gain=1223.39 120.738 102.816 57.4868 32.0754 21.9045 14.7903 8.45316 8.20478 6.36894 6.19962 5.91413 5.09427 4.81593 4.58028 4.07027 4.79129 3.6723 3.61817 3.50994 3.16829 3.58895 2.98937 7.98826 2.92085 3.54816 3.05361 2.87347 2.77381 2.63265
threshold=12.500000000000002 121.00000000000001 26.500000000000004 11.500000000000002 12.500000000000002 11.500000000000002 90.500000000000014 166.50000000000003 43.500000000000007 1.0000000180025095e-35 1.0000000180025095e-35 4.5000000000000009 0.22500000000000003 43.500000000000007 8.5000000000000018 1.0000000180025095e-35 5.9009723739631514 0.18333333333333338 7.5000000000000009 3.5000000000000004 5.3005981668637201 525.50000000000011 524.50000000000011 21.500000000000004 4.9882812629702018 410.50000000000006 414.50000000000006 30.500000000000004 16.500000000000004 0.55000000000000016
decision_type=2 2 2 2 2 2 2 2 2 2 2 2 2 2 2 2 2 2 2 2 2 2 2 2 2 2 2 2 2 2
left_child=1 -1 4 9 7 13 -6 -2 15 18 28 14 -9 -4 -10 16 -5 -13 -3 -11 24 -22 23 -7 25 -15 -27 -18 -8 -14
right_child=2 3 5 8 6 22 10 12 11 19 -12 17 29 20 -16 -17 27 -19 -20 -21 21 -23 -24 -25 -26 26 -28 -29 -30 -31
leaf_value=-0.030469248515942127 -0.027597401814740841 0.041851086034029532 0.0032000948559691303 0.03452355973536303 -0.042925240986803032 -0.021137451050242437 -0.012504810580125545 -0.0017288852956501653 0.023375638627357802 0.055208421707696832 -0.00553961090062512 -0.053059871127485198 0.023651625922565339 -0.060395026709714653 -0.0015433164715279318 0.034932196777323531 0.0052913344579188634 0.0028396588927995965 0.01462494190139902 0.048023776500564122 -0.038334739882653672 0.042682886349373249 -0.052005284128006403 -0.047942494275111942 0.033738819599609671 0.098576012702423527 -0.029373064043203185 -0.057085807414030292 -0.026635092129527849 0.055517769398831233
leaf_weight=58.437946736696176 10.747743703657759 65.281845580786467 19.493021350353956 17.786881492473185 66.45060864277184 30.694919471396133 50.829263547435403 19.22393483761698 53.596400568261743 343.44484438630752 86.269980736775324 5.4712360836565477 41.556741035077721 2.9007801138795895 28.113117842935026 94.377884967252612 18.272437575273219 6.3457535784691572 15.00807766523212 336.59314910671674 29.529412368079651 1.4332824926823367 364.62527745380066 294.14759351871908 3.6416449025273323 0.84162592887878407 1.0456960024312136 2.0537897758185855 109.65974985773209 7.6791756572201839
leaf_count=2238 410 405 443 186 4409 1346 1271 355 520 1778 2182 115 635 124 516 1270 235 71 167 4160 1502 27 25559 21470 50 1 40 30 4163 140
internal_value=0.000272146 0.0393614 -0.035528 0.0434986 -0.0147989 -0.0463978 -0.0219876 0.0136271 0.021359 0.0500799 -0.0163492 0.0100205 0.0200991 -0.0171269 0.014802 0.029363 0.0155723 -0.0230417 0.0367619 0.0516523 -0.0271855 -0.0345844 -0.0488977 -0.0454096 -9.37863e-06 -0.025677 0.0276841 -0.00101134 -0.0221598 0.0286217
internal_weight=2185.55 1044.78 1140.77 986.345 392.417 748.353 313.21 79.2076 226.018 760.328 246.759 93.5265 68.4599 58.8855 81.7095 132.491 38.1131 11.817 80.2899 680.038 39.3924 30.9627 689.468 324.843 8.42975 4.7881 1.88732 20.3262 160.489 49.2359
internal_count=75818 11691 64127 9453 13565 50562 12025 1540 2943 6510 7616 1222 1130 2187 1036 1721 451 186 572 5938 1744 1529 48375 22816 215 165 41 265 5434 775
is_linear=0
shrinkage=0.05


Tree=17
num_leaves=31
num_cat=0
split_feature=3 3 8 1 1 1 8 8 1 6 6 6 2 3 6 0 3 3 2 0 0 0 1 3 3 3 0 7 10 10
split_gain=1109.65 114.216 104.044 45.8016 37.4011 21.0023 13.1639 9.27208 6.92967 6.07347 5.97827 5.2202 5.18288 5.11004 4.37577 5.03285 4.28323 3.76027 3.61827 3.2934 3.3096 3.23325 3.18559 5.56256 2.81208 2.78672 2.77097 3.1285 2.75921 4.30585
threshold=11.500000000000002 26.500000000000004 121.00000000000001 10.500000000000002 13.500000000000002 11.500000000000002 93.000000000000014 152.50000000000003 43.500000000000007 1.0000000180025095e-35 0.22500000000000003 0.36666666666666675 0.24831613153219226 5.5000000000000009 1.0000000180025095e-35 5.9009723739631514 43.500000000000007 7.5000000000000009 0.60360038280487072 5.3005981668637201 9.5074084870799656 4.9037059439394168 18.500000000000004 49.500000000000007 18.500000000000004 19.500000000000004 8.1813568618923842 0.45000000000000007 94.500000000000014 161.50000000000003
decision_type=2 2 2 2 2 2 2 2 2 2 2 2 2 2 2 2 2 2 2 2 2 2 2 2 2 2 2 2 2 2
left_child=2 4 -1 11 7 16 -6 -2 14 -8 -9 17 13 -10 15 -5 -3 -4 -17 28 -21 -14 23 -7 -11 -12 -19 -28 -18 -30
right_child=1 5 3 8 6 22 9 10 12 24 25 -13 21 -15 -16 18 19 26 -20 20 -22 -23 -24 -25 -26 -27 27 -29 29 -31
leaf_value=-0.031279905126903929 -0.028234635950284099 0.0028691811849446015 0.047646686580710786 0.035543842660974934 -0.040236992104995539 -0.017916240637543931 -0.021363059148670888 -0.0018844017838814985 -0.12257712349929242 0.0031043808058435133 0.032195598867992246 0.053727745563574729 0.017605086880752536 -0.0081030392912106418 0.036135920341979898 -0.011540443904174497 -0.083231108106728305 0.0078822244088108794 0.044836216233747998 -0.04520355973186263 -0.0099684066887657918 -0.041817602424549793 -0.048978610919047816 -0.048291769868076428 -0.014773924608875957 0.0077471498936818144 0.059883966930411252 0.030155209536787499 0.056242743090526515 -0.021425203966263705
leaf_weight=48.758100967737846 11.786762883421032 19.305442743003368 236.44195655733347 17.379252671264112 69.61788980755955 23.559058674843982 164.79427992796991 25.203467014245689 1.2651222739368666 47.776412205770612 51.784021853934973 400.18582050781697 75.316268828697503 4.2493039881810546 100.87315277615562 15.965750568546357 0.84531241189688255 9.1029741065576655 3.4634374752640715 20.260865321848545 9.9310694253072125 2.3609112855046979 591.29118642187677 41.837054594769143 40.758230702020228 15.040887015871702 12.090733787044881 33.012364273425192 3.1477598985657096 4.1203772248700261
leaf_count=1881 515 443 1692 166 4655 879 5575 478 28 1048 861 3614 882 74 1384 218 40 91 29 1148 381 36 44293 3203 1183 234 168 444 28 147
internal_value=0.000279911 -0.0330537 0.0398812 0.0436869 -0.0125881 -0.045281 -0.0209804 0.0135188 0.0238672 -0.0156885 0.0188664 0.0500237 0.0124738 -0.0343657 0.0307514 0.0159953 -0.0163349 0.0449236 -0.00149077 -0.0260135 -0.0336136 0.015799 -0.0478205 -0.0373489 -0.00512616 0.0266928 0.0330459 0.0381246 0.00226814 0.012212
internal_weight=2101.53 1141.06 960.465 911.707 426.762 714.298 322.947 103.815 220.873 253.329 92.0284 690.834 83.1916 5.51443 137.682 36.8084 57.6108 290.648 19.4292 38.3054 30.1919 77.6772 656.687 65.3961 88.5346 66.8249 54.2061 45.1031 8.11345 7.26814
internal_count=75818 65111 10707 8826 14549 50562 12461 2088 2817 7806 1573 6009 1020 102 1797 413 2187 2395 247 1744 1529 918 48375 4082 2231 1095 703 612 215 175
is_linear=0
shrinkage=0.05


Tree=18
num_leaves=31
num_cat=0
split_feature=3 3 8 1 1 1 8 8 6 1 6 6 9 7 6 0 6 3 0 0 0 3 1 1 0 0 1 3 0 7
split_gain=1008.37 106.111 97.7854 44.7601 33.8608 21.9648 10.7902 10.5981 8.82745 6.36146 5.63706 4.56759 4.22351 3.99846 3.78345 3.69661 3.49451 3.41834 4.00042 3.36665 3.28654 3.14582 7.4435 3.11959 3.08998 3.04926 3.01082 2.96164 2.84961 3.44945
threshold=11.500000000000002 26.500000000000004 121.00000000000001 10.500000000000002 19.500000000000004 11.500000000000002 93.000000000000014 121.00000000000001 1.0000000180025095e-35 43.500000000000007 0.22500000000000003 0.63333333333333341 4.5000000000000009 0.55000000000000016 1.0000000180025095e-35 7.1219448214979222 0.18333333333333338 43.500000000000007 5.3005981668637201 5.2749786160958498 5.9009723739631514 524.50000000000011 21.500000000000004 10.500000000000002 4.229059463569306 9.5074084870799656 5.5000000000000009 5.5000000000000009 15.895058403754303 0.45000000000000007
decision_type=2 2 2 2 2 2 2 2 2 2 2 2 2 2 2 2 2 2 2 2 2 2 2 2 2 2 2 2 2 2
left_child=2 4 -1 10 6 17 -2 -6 -8 14 28 13 27 15 20 -10 -14 -3 19 26 24 22 -7 -15 -5 -20 -19 -11 29 -4
right_child=1 5 3 9 7 21 8 -9 11 12 -12 -13 16 23 -16 -17 -18 18 25 -21 -22 -23 -24 -25 -26 -27 -28 -29 -30 -31
leaf_value=-0.031251161208557428 -0.026306899581220757 0.002613828391863715 0.049023319866722731 -0.007126908591016716 -0.041427644144529811 -0.019331680721488324 -0.0096897728240434716 -0.017391257843832348 -0.01209302996650299 0.027370913901452604 0.051243702450316446 0.052593794073701662 -0.051759675148168142 0.013395413462500051 0.034768742628932786 0.031157018882725197 0.0073970341751743249 -0.084110573501856162 -0.043453905603884513 0.078136567487354092 0.0011208837404829686 -0.050227920335645007 -0.045769679889866799 -0.020102162389894731 0.042722197416730223 -0.0093377185405170669 0.0062904541062207865 0.0069463060424692444 0.058392504146936003 0.028244095016033584
leaf_weight=47.077231113798916 20.38031429075636 19.263242554385215 30.009527004789561 4.0325336800888207 58.222694647614844 29.587241151835769 31.974268855992705 215.97375952603761 5.5876521663740268 32.644936346448958 551.5648691796232 10.063136319397016 4.3958751019090396 24.099206326529384 98.091120819561183 42.656815640395507 5.7774458043277264 1.0792221925221364 19.586835674825128 1.3801623880863187 18.499438739381731 329.36586497654207 265.7531618893845 9.7674183286726457 13.569858346600084 9.8399274211842549 6.2839580893050879 38.895832067355514 15.52849177457392 59.714690441265702
leaf_count=1881 968 443 276 31 4214 1346 728 6967 100 274 5150 195 94 381 1384 767 57 55 1148 5 247 25559 21470 229 135 381 155 595 123 460
internal_value=0.000300392 -0.0319855 0.0389417 0.0427281 -0.0121723 -0.0441476 0.00741203 -0.0224951 0.0129474 0.0229782 0.0492203 0.0207999 0.0119797 0.0169034 0.0296754 0.0261478 -0.0181645 -0.014557 -0.0232226 0.00647305 0.0158366 -0.0468681 -0.0431211 0.00373443 0.0313023 -0.0320459 -0.00695964 0.0162663 0.0386166 0.035194
internal_weight=2020.67 1100.86 919.802 872.725 418.725 682.14 144.529 274.196 124.148 215.907 656.818 92.1742 81.7141 82.1111 134.193 48.2445 10.1733 57.4333 38.1701 8.74334 36.1018 624.706 295.34 33.8666 17.6024 29.4268 7.36318 71.5408 105.253 89.7242
internal_count=75818 65111 10707 8826 14549 50562 3368 11181 2400 2817 6009 1672 1020 1477 1797 867 151 2187 1744 215 413 48375 22816 610 166 1529 210 869 859 736
is_linear=0
shrinkage=0.05


Tree=19
num_leaves=31
num_cat=0
split_feature=3 3 1 1 1 1 6 1 6 9 2 3 1 2 3 3 10 3 3 0 2 1 6 7 0 0 0 6 6 2
split_gain=916.79 98.0098 66.9006 31.236 20.4997 7.23904 6.4951 5.95964 4.3716 4.17307 4.4079 3.90772 3.76357 3.54386 3.50412 3.37973 3.33525 3.28345 3.21181 3.49547 3.18624 7.02015 3.14925 5.10352 3.50983 3.06869 3.02033 3.00467 2.56767 3.13823
threshold=11.500000000000002 26.500000000000004 10.500000000000002 12.500000000000002 11.500000000000002 43.500000000000007 1.0000000180025095e-35 40.500000000000007 0.22500000000000003 4.5000000000000009 0.24831613153219226 7.5000000000000009 3.5000000000000004 0.54665943980216991 5.5000000000000009 5.5000000000000009 502.50000000000006 16.500000000000004 43.500000000000007 5.3005981668637201 1.0000000180025095e-35 21.500000000000004 0.36666666666666675 0.36666666666666675 5.8751497289658081 5.2749786160958498 7.7162806733920428 0.36666666666666675 0.36666666666666675 0.18480232357978824
decision_type=2 2 2 2 2 2 2 2 2 2 2 2 2 2 2 2 2 2 2 2 2 2 2 2 2 2 2 2 2 2
left_child=2 3 6 8 18 22 11 13 -2 10 15 -1 26 -5 -12 -7 -11 -9 -3 25 -6 28 23 -4 -25 -20 -8 -21 29 -22
right_child=1 4 5 7 20 9 12 17 -10 16 14 -13 -14 -15 -16 -17 -18 -19 19 27 21 -23 -24 24 -26 -27 -28 -29 -30 -31
leaf_value=0.037454740483248115 -0.0030312492566137131 0.0023143896290134997 0.027929006984136064 -0.013575557062332778 -0.049348133891738435 -0.10814356543655067 7.0804033927591647e-05 -0.015699995926175998 0.021226740048067225 -0.033567005547095997 0.023532598177829173 0.0064601038922143771 0.043915428737655887 0.013153639483936389 0.0019565166168305829 -0.013792516595651824 0.042948184880555851 -0.02922144971519542 -0.0081685248623465326 -0.037879473661757083 0.037058020271465188 -0.044682462960373662 0.034633219647964952 0.035107073582124483 3.4503744718275591e-05 0.072425489709563848 0.052522087289060465 0.0084062710435654376 0.015306784743317245 -0.030402326590775831
leaf_weight=57.659143341239542 26.228588440688327 19.125374979805201 59.026391822379082 107.2530809645541 311.90157955675386 1.2107483474537719 2.7705044439062467 68.581311388290487 63.626993748359382 10.315753982868044 34.533709607901983 12.346881810575722 275.50108058960177 14.021861922461538 41.350873535498977 4.392657667864114 1.6523301447741676 130.01148850528989 7.272545936284585 24.613846010179262 1.8678005151450694 252.58684880053625 38.572816024068743 8.6424359325319511 40.851012581493706 1.410114938393235 293.78101011738181 4.0886844126507631 4.6626538147684178 22.38617937383242
leaf_count=445 606 443 956 3669 25559 46 28 2314 1247 235 396 158 4013 403 845 101 18 6310 210 1411 44 21470 754 90 712 5 1910 118 131 1171
internal_value=0.000298112 -0.0310533 0.037938 -0.0119016 -0.0431271 0.0154481 0.0463638 -0.0192187 0.0141459 0.00456628 0.00861539 0.0319883 0.0481231 -0.0104851 0.0117754 -0.0341793 -0.0230032 -0.024552 -0.0143514 -0.0228772 -0.0458674 -0.0420109 0.0223619 0.0180001 0.0061588 0.00492041 0.0520321 -0.0312861 -0.0186745 -0.0252072
internal_weight=1942.25 1059.64 882.607 409.723 649.916 240.549 642.059 319.868 89.8556 93.4561 81.488 70.006 572.053 121.275 75.8846 5.60341 11.9681 198.593 56.5106 37.3852 593.405 281.503 147.093 108.52 49.4934 8.68266 296.552 28.7025 28.9166 24.254
internal_count=75818 65111 10707 14549 50562 4153 6554 12696 1853 1641 1388 603 5951 4072 1241 147 253 8624 2187 1744 48375 22816 2512 1758 802 215 1938 1529 1346 1215
is_linear=0
shrinkage=0.05


Tree=20
num_leaves=31
num_cat=0
split_feature=3 8 3 1 1 1 3 8 6 6 3 6 8 7 6 8 1 7 2 1 2 9 10 2 1 3 8 2 3 0
split_gain=818.571 110.218 56.822 55.9478 20.0982 19.9373 9.03863 8.32044 6.51764 6.0178 5.86963 5.7673 5.50576 4.21629 3.92669 6.5367 5.02613 3.85453 3.84906 3.57 3.34 5.06096 3.17418 3.06203 5.92407 2.88798 2.79304 2.75061 2.52543 2.72749
threshold=13.500000000000002 93.000000000000014 26.500000000000004 11.500000000000002 12.500000000000002 12.500000000000002 5.5000000000000009 90.500000000000014 0.36666666666666675 0.22500000000000003 7.5000000000000009 1.0000000180025095e-35 159.50000000000003 0.45000000000000007 0.29166666666666669 161.50000000000003 2.5000000000000004 0.36666666666666675 0.55593562126159679 7.5000000000000009 0.2111349552869797 3.5000000000000004 173.50000000000003 1.0000000180025095e-35 21.500000000000004 17.500000000000004 175.50000000000003 0.26594345271587377 9.5000000000000018 13.463381053250256
decision_type=2 2 2 2 2 2 2 2 2 2 2 2 2 2 2 2 2 2 2 2 2 2 2 2 2 2 2 2 2 2
left_child=1 -1 5 8 14 12 27 -7 10 17 -3 20 -2 -12 16 -16 -4 -8 25 -15 21 22 -9 -6 26 -14 -25 -5 -10 -30
right_child=2 3 4 6 23 7 9 11 28 -11 13 -13 18 19 15 -17 -18 -19 -20 -21 -22 -23 -24 24 -26 -27 -28 -29 29 -31
leaf_value=-0.031497912999641199 -0.032079510098096287 0.044325167944891303 0.019214615340003835 -0.011171679501487307 -0.04818124298844291 -0.039673225195674094 0.0067457214573338102 -0.050852583135123731 0.052041414082878837 0.021305013162869021 0.045574041873910523 -0.0061167335353423842 0.023111449406546719 0.027707628196940216 -0.063545758183195369 0.016729444040778762 -0.029691854143874308 -0.01823032135559188 0.048686305300876198 -0.0033801562112065336 -0.025750711625948317 -0.034305486353521854 0.051223115786708018 -0.043707941210501283 -0.043232556446260312 -0.0016868706689780882 -0.0076363458073419287 0.032163398990470451 0.026722974772018172 0.053139532006428486
leaf_weight=60.462310189846903 6.9449221587274215 206.69974754750729 6.0680321077816179 3.8423753594979635 292.96687177906279 52.069554022396915 60.994908038526773 0.90355544444173386 313.53923142072745 59.702779997373 20.675812371540815 74.026019059121609 22.076297505293041 29.979133517481387 3.0149258049204972 15.96139128692448 39.131693920702673 20.686906791292131 7.4105582404881707 13.345922310836611 125.01598100329284 4.8124246075749397 4.8475980604998767 7.5636526742018786 238.57476323714945 25.077014729846269 18.473337203729898 77.897556316107512 21.692995409946889 17.779978785663843
leaf_count=2577 321 1760 172 47 25303 4110 1066 35 3247 1001 310 2026 395 426 207 339 1908 413 109 197 4844 176 77 480 21408 468 791 799 359 332
internal_value=-0.000199815 0.0337218 -0.0327702 0.0383783 -0.04161 -0.0157639 0.0168911 -0.0217848 0.0460651 0.0092393 0.0402283 -0.017341 0.00985089 0.0269968 -0.0151125 0.00397545 -0.0231262 0.000420237 0.0151878 0.0181313 -0.0234695 0.00352801 0.0351861 -0.0446598 -0.0407611 0.00992324 -0.018115 0.0301263 0.0505409 0.0386219
internal_weight=1852.24 907.3 944.939 846.837 621.755 323.184 223.125 261.675 623.713 141.385 270.701 209.606 61.5088 64.0009 64.176 18.9763 45.1997 81.6818 54.5639 43.3251 135.58 10.5636 5.75115 557.579 264.612 47.1533 26.037 81.7399 353.012 39.473
internal_count=75703 12534 63169 9957 50608 12561 3326 11268 6631 2480 2693 7158 1293 933 2626 546 2080 1479 972 623 5132 288 112 47982 22679 863 1271 846 3938 691
is_linear=0
shrinkage=0.05


Tree=21
num_leaves=31
num_cat=0
split_feature=3 8 1 3 1 1 3 6 6 8 8 3 2 6 2 1 2 1 6 1 1 6 8 1 0 1 0 0 1 9
split_gain=740.169 101.556 55.6906 53.7929 22.3999 14.8106 8.14126 7.45949 7.09351 6.5138 5.23185 5.0361 4.96337 3.80243 3.39834 3.09878 2.99711 5.65337 2.86336 2.73204 2.65608 2.59515 4.21768 3.89148 2.55283 2.52949 2.50369 4.16006 2.80291 2.45945
threshold=13.500000000000002 93.000000000000014 11.500000000000002 28.500000000000004 23.500000000000004 11.500000000000002 8.5000000000000018 0.36666666666666675 0.36666666666666675 121.00000000000001 90.500000000000014 7.5000000000000009 0.1734312176704407 0.18333333333333338 0.12702911347150805 6.5000000000000009 1.0000000180025095e-35 21.500000000000004 1.0000000180025095e-35 28.500000000000004 38.500000000000007 0.29166666666666669 161.50000000000003 2.5000000000000004 7.1219448214979222 3.5000000000000004 5.0109468479795751 4.9882812629702018 8.5000000000000018 4.5000000000000009
decision_type=2 2 2 2 2 2 2 2 2 2 2 2 2 2 2 2 2 2 2 2 2 2 2 2 2 2 2 2 2 2
left_child=1 -1 8 4 7 21 12 15 11 -6 -9 25 -4 24 -11 -2 -7 -18 -16 -15 -14 23 -23 -5 -8 -3 27 28 -25 -22
right_child=3 2 6 5 9 16 13 10 -10 14 -12 -13 20 19 18 -17 17 -19 -20 -21 29 22 -24 26 -26 -27 -28 -29 -30 -31
leaf_value=-0.030521353860599638 0.011877072220242157 0.048587306839893353 -0.076927261853125095 0.015840091251172896 -0.041960388616395811 -0.047218740013860595 -0.0018365519624320562 -0.036220259347910948 0.050139273128524744 0.028908513550679478 0.028728111130748132 0.026653220152244972 0.03143661942260529 0.024250297627709385 -0.026128068348405521 -0.011100917089704189 -0.017164252229055814 -0.042260346377638001 -0.011703616138754473 -0.0022567685973081835 0.020729221360575506 -0.061784827015351873 0.013197210555599038 -0.078472526162270934 -0.039891887249590439 0.037285160416919975 -0.036386236672946257 0.066158582080566936 0.0062233160990844104 -0.010523679838523488
leaf_weight=59.160451347008348 18.543886507395655 100.16910329181701 1.2139185108244408 5.5435138469329095 47.587956006871536 282.1427715155296 40.771999517921358 3.4740833074320099 332.50578132411465 3.3352599749341598 28.849414015887305 61.808612073305994 68.29764834837988 27.362637507263571 121.85327940189745 70.282851015683264 25.137535175774246 209.16785918234382 47.940397285856307 15.077130309306083 54.464559245388955 2.2033130782656363 12.602146141231058 1.6124170189723397 4.9409271040931335 97.878563118632883 25.387393626268022 1.6866305861622093 2.4781932760961354 7.1176820993423453
leaf_count=2577 374 605 21 162 4154 25651 829 179 3938 48 556 933 940 504 5430 2226 1212 19690 1566 275 542 162 266 78 124 1155 1341 4 70 91
internal_value=-0.000227971 0.032724 0.0373341 -0.0317652 -0.0160947 -0.0411976 0.0158055 0.00118035 0.0453023 -0.0255769 0.0217476 0.039113 0.0237064 0.00405596 -0.0210736 -0.00630392 -0.0437477 -0.0395679 -0.0220554 0.0148334 0.024647 -0.0156324 0.00203856 -0.0227597 -0.0059498 0.0430016 -0.0296257 8.26054e-05 -0.0271617 0.017117
internal_weight=1780.6 870.769 811.609 909.829 341.867 567.962 219.247 121.15 592.362 220.717 32.3235 259.856 131.094 88.1527 173.129 88.8267 516.448 234.305 169.794 42.4398 129.88 51.5136 14.8055 36.7081 45.7129 198.048 31.1646 5.77724 4.09061 61.5822
internal_count=75703 12534 9957 63169 14533 48636 3326 3335 6631 11198 735 2693 1594 1732 7044 2600 46553 20902 6996 779 1573 2083 428 1655 953 1760 1493 152 148 633
is_linear=0
shrinkage=0.05


Tree=22
num_leaves=31
num_cat=0
split_feature=3 8 3 1 1 1 3 6 8 6 8 3 7 3 6 8 1 7 1 2 1 1 8 6 2 3 9 2 2 8
split_gain=673.327 87.88 60.4648 45.7029 19.7008 17.5446 7.9555 7.25871 7.07856 7.03872 6.33976 4.53107 3.9594 3.84507 3.39039 7.99322 3.14281 5.58373 2.9961 2.99515 5.11322 2.75313 2.70466 2.63944 2.63455 2.55894 2.76482 5.48677 3.12037 2.65915
threshold=12.500000000000002 93.000000000000014 26.500000000000004 14.500000000000002 23.500000000000004 12.500000000000002 5.5000000000000009 0.36666666666666675 90.500000000000014 1.0000000180025095e-35 121.00000000000001 7.5000000000000009 0.55000000000000016 20.500000000000004 0.22500000000000003 161.50000000000003 3.5000000000000004 0.70833333333333337 2.5000000000000004 1.0000000180025095e-35 23.500000000000004 7.5000000000000009 54.500000000000007 0.36666666666666675 0.62799385190010082 16.500000000000004 3.5000000000000004 0.24276357144117358 0.23403905332088473 194.50000000000003
decision_type=2 2 2 2 2 2 2 2 2 2 2 2 2 2 2 2 2 2 2 2 2 2 2 2 2 2 2 2 2 2
left_child=1 -1 4 7 8 14 -5 11 -2 -10 -6 16 -13 23 18 -16 -3 -18 22 -7 -21 -14 -4 -11 -8 26 27 -12 -28 -30
right_child=2 3 5 6 10 19 24 -9 9 13 25 12 21 -15 15 -17 17 -19 -20 20 -22 -23 -24 -25 -26 -27 28 -29 29 -31
leaf_value=-0.029795293417807879 -0.026294838934925565 0.04829382937789839 0.062870365987967455 0.02758264255088751 -0.039439989059149048 -0.046415886289532908 0.0032158382537226839 0.049154686219926719 -0.012443370561546601 0.012846892633857727 0.052470756526627804 0.037353888186055804 0.022737167023517413 -0.003357864112498451 -0.05537603126647575 0.010864441597946391 0.040799587344545814 0.0095692892263370705 -0.031593578906314708 -0.018638776014382148 -0.041351010981713676 -0.011221394059379693 -0.016769162311482452 0.034544514866650756 0.0392815667850639 -0.022112627705413921 -0.083351827989734423 -0.008475330818067164 -0.0023697352040308859 -0.032387418145176733
leaf_weight=51.757031748420559 18.322533970349468 94.656815703958273 1.6609603164251883 66.7807512790896 43.119246182031929 263.93131072935648 92.381119497586042 321.38143690139987 32.027063179761171 33.186346226837486 4.7305289572104838 36.188032077159733 19.48557404126041 20.184255649335682 5.6595183013705563 23.319432732183486 88.428178914822638 17.076234253123403 28.385868480661884 28.052292723092251 212.48603394930251 8.6039764005690795 2.9766850847518072 24.263829379808158 5.3572107274085274 118.54901833483018 1.7398749915882934 16.83543083909899 18.232801158912483 12.392371418885885
leaf_count=2216 1022 605 10 664 3799 25303 1607 4074 852 675 36 582 283 425 446 543 1119 202 1508 1562 21117 145 119 484 90 4799 54 465 481 416
internal_value=-0.000178934 0.03322 -0.0296158 0.0375667 -0.0130672 -0.039653 0.0142811 0.0441061 0.00247246 0.00727897 -0.0222919 0.0379704 0.0264207 0.0154152 -0.0145535 -0.00207216 0.0416793 0.0357449 -0.0255061 -0.0427379 -0.0387022 0.0123355 0.0117535 0.0220108 0.00519266 -0.0180049 -0.00897549 0.00489329 -0.0182167 -0.0145163
internal_weight=1712.15 802.096 910.055 750.339 343.583 566.472 164.519 585.82 127.984 109.661 215.599 264.439 64.2776 77.6344 62.0025 28.979 200.161 105.504 33.0235 504.47 240.538 28.0896 4.63765 57.4502 97.7383 172.48 53.931 21.566 32.365 30.6252
internal_count=75703 11587 64116 9371 13508 50608 2361 7010 3458 2436 10050 2936 1010 1584 2626 989 1926 1321 1637 47982 22679 428 129 1159 1697 6251 1452 501 951 897
is_linear=0
shrinkage=0.05


Tree=23
num_leaves=31
num_cat=0
split_feature=3 8 3 1 1 1 6 8 6 8 3 7 1 3 1 7 1 1 8 3 2 9 2 10 6 2 1 2 6 8
split_gain=612.638 77.7972 66.2175 36.7292 22.9327 15.966 7.75765 6.78765 5.85618 5.76047 4.57788 4.40135 4.60174 3.98165 2.99146 2.87566 3.07819 2.81047 2.80479 2.64116 2.56144 2.6971 4.3129 3.80585 2.34784 2.26638 2.87137 2.48736 2.3568 2.14234
threshold=11.500000000000002 95.000000000000014 26.500000000000004 11.500000000000002 23.500000000000004 14.500000000000002 0.36666666666666675 90.500000000000014 1.0000000180025095e-35 121.00000000000001 44.500000000000007 0.36666666666666675 8.5000000000000018 5.5000000000000009 14.500000000000002 0.29166666666666669 10.500000000000002 4.5000000000000009 81.500000000000014 17.500000000000004 0.5860724449157716 3.5000000000000004 0.2111349552869797 173.50000000000003 0.22500000000000003 1.0000000180025095e-35 23.500000000000004 0.19480920583009723 0.36666666666666675 165.50000000000003
decision_type=2 2 2 2 2 2 2 2 2 2 2 2 2 2 2 2 2 2 2 2 2 2 2 2 2 2 2 2 2 2
left_child=1 -1 4 8 6 10 11 -8 -3 -6 18 19 29 -5 -15 -12 -17 -10 -4 -2 21 22 23 -11 -20 -7 27 -27 -29 -13
right_child=2 3 5 13 9 25 7 -9 17 20 15 12 -14 14 -16 16 -18 -19 24 -21 -22 -23 -24 -25 -26 26 -28 28 -30 -31
leaf_value=-0.030766846572552992 0.023778450160018311 0.029541645734955952 -0.037044216705761537 0.02674800394283159 -0.037274101310373876 -0.045536364013607583 -0.039973364141924671 0.029111760434747211 0.049800317002784894 -0.076106519455820393 -0.053160222204045128 -0.033164468285761244 -0.019020652952322175 0.030532611471809398 0.0075368858913683794 -0.010912804379035818 -0.040099587369388873 0.041844156610029971 -0.01433457661225113 -0.0058557059720042801 0.020600890521742094 -0.023032392596739677 -0.014466695076192066 0.042367717625755377 0.019491881488941667 0.038232910780462669 -0.040395628331376755 -0.033705182215572498 0.012887076548565683 0.012942812506173035
leaf_weight=43.840616897912696 19.603921173606071 57.113758573774248 4.372687145718376 75.525218350347131 45.064014410891104 242.16723139176611 3.9293478803010649 37.360842512222007 269.29167184256949 0.76853605359792609 8.3175954031757993 2.8486917109694359 47.451697741867974 17.092895625159144 81.935850297100842 26.499510585214011 13.705974269774741 188.82860646233894 8.2034651848953235 12.196679113898425 4.353995739016681 109.50515203387477 59.396578158251941 5.7456646552309394 13.690723783336578 1.6308504617773021 202.07260261697229 16.456365330610428 3.250224540475755 21.79229546431452
leaf_count=1875 485 543 213 846 4015 24482 220 785 2259 31 705 135 1572 316 1366 1066 1179 3435 258 363 93 4188 2110 83 275 51 21117 1133 129 375
internal_value=-0.000182727 0.0338184 -0.0275824 0.0379232 -0.0112865 -0.038741 0.00420377 0.0225373 0.0446388 -0.0212891 -0.0172974 -0.00308252 -0.00991757 0.0181009 0.0115061 -0.0263988 -0.0208625 0.0465209 -0.000484184 0.0124127 -0.0172821 -0.0182224 -0.010231 0.0283903 0.00681755 -0.0421857 -0.0385537 -0.0211097 -0.0260207 0.00761245
internal_weight=1644.01 733.629 910.385 689.788 370.017 540.367 145.183 41.2902 515.234 224.834 74.79 103.893 72.0927 174.554 99.0287 48.5231 40.2055 458.12 26.2669 31.8006 179.77 175.416 65.9108 6.5142 21.8942 465.577 223.41 21.3374 19.7066 24.641
internal_count=75703 10640 65063 8765 14455 50608 3935 1005 6237 10520 3696 2930 2082 2528 1682 2950 2245 5694 746 848 6505 6412 2224 114 533 46912 22430 1313 1262 510
is_linear=0
shrinkage=0.05


Tree=24
num_leaves=31
num_cat=0
split_feature=3 3 1 1 1 6 6 6 1 3 1 7 1 9 6 7 3 1 7 0 1 2 9 0 2 3 6 10 0 3
split_gain=552.204 62.8643 53.7473 24.4974 11.8456 7.46368 5.81932 5.06726 4.1315 3.96608 3.85767 3.71915 4.20456 3.16506 3.52891 2.86087 2.81817 2.755 3.06784 2.69365 2.57766 2.54396 5.16259 2.51004 2.24995 2.40724 2.22757 2.18012 2.09681 2.09674
threshold=11.500000000000002 28.500000000000004 11.500000000000002 23.500000000000004 18.500000000000004 0.36666666666666675 0.36666666666666675 0.29166666666666669 2.5000000000000004 7.5000000000000009 43.500000000000007 0.36666666666666675 8.5000000000000018 2.5000000000000004 0.81666666666666676 0.45000000000000007 16.500000000000004 3.5000000000000004 0.70833333333333337 7.1219448214979222 40.500000000000007 0.19480920583009723 3.5000000000000004 8.1813568618923842 0.35125592350959783 9.5000000000000018 0.22500000000000003 111.50000000000001 4.8610153742914202 41.500000000000007
decision_type=2 2 2 2 2 2 2 2 2 2 2 2 2 2 2 2 2 2 2 2 2 2 2 2 2 2 2 2 2 2
left_child=2 3 6 5 7 11 9 8 -3 17 -4 19 -13 14 -7 23 21 -1 26 -2 -18 22 -5 -11 -12 28 -19 -20 -26 -9
right_child=1 4 10 16 -6 13 -8 29 -10 15 24 12 -14 -15 -16 -17 20 18 27 -21 -22 -23 -24 -25 25 -27 -28 -29 -30 -31
leaf_value=0.045209341642865324 -0.006717130238181203 0.012452501705659662 0.016827972327504125 0.052547127500475077 -0.042310578799242833 -0.026134773126965574 0.046319821965353732 0.015523400321520862 -0.032748094290454055 0.0045865897084609126 -0.013291627076024985 0.0076916696135159515 -0.017357445568682 0.029441835846367694 0.037387200118698775 0.014422470859694609 -0.012761086910753434 0.025078215346596558 0.057663737158738508 0.022724141179078741 -0.028613310121944152 -0.016093850965656534 -0.062122739171428444 0.052378385218984851 0.013577261233764038 -0.01170063538931124 0.043122666330751236 0.003463950206949876 -0.03789302285977679 -0.014676898469593566
leaf_weight=88.567636386724189 12.654718687408602 5.4567025972064576 111.92338390345685 3.5720738533418617 394.51276685693301 6.0885823371354473 279.43191088363528 9.3029931855853647 68.750192166655324 3.624533799942582 17.461286497768015 25.374755151569843 49.300384563626722 32.874549591331743 3.4114844165742397 32.680180954979733 32.225604297476821 26.267078478354961 2.1863390253856769 20.12317252997309 125.55925153475255 72.639735385659151 1.3534451508894561 11.352002604864536 51.909894505282864 13.927002783631904 49.026543219806626 12.255250967107711 2.0571448635309926 15.036913930322044
leaf_count=699 401 162 2168 31 42568 195 4025 215 4905 71 374 537 1722 768 89 573 1547 382 37 507 7740 2850 40 218 794 380 701 166 52 786
internal_value=-0.00018129 -0.0266137 0.0328554 -0.0114786 -0.0384372 0.00432519 0.0414951 -0.0229309 -0.0294243 0.0355287 0.0107221 -0.00268281 -0.00884571 0.022096 -0.00332396 0.0227156 -0.0215395 0.0389534 0.0327788 0.0113576 -0.0253757 -0.0137359 0.0210379 0.0408121 0.0027157 0.00683253 0.0368276 0.0116694 0.0116153 -0.003134
internal_weight=1580.91 878.237 702.67 385.178 493.06 149.828 505.391 98.5468 74.2069 225.96 197.279 107.453 74.6751 42.3746 9.50007 47.6567 235.35 178.303 89.7352 32.7779 157.785 77.5653 4.92552 14.9765 85.3553 67.894 75.2936 14.4416 53.967 24.3399
internal_count=75703 65063 10640 16427 48636 4219 6872 6068 5067 2847 3768 3167 2259 1052 284 862 12208 1985 1286 908 9287 2921 71 289 1600 1226 1083 203 846 1001
is_linear=0
shrinkage=0.05


Tree=25
num_leaves=31
num_cat=0
split_feature=3 8 3 1 1 6 8 1 6 8 3 6 8 2 3 1 7 1 2 2 2 8 0 7 2 8 3 7 2 8
split_gain=512.162 80.2919 66.7022 33.5669 22.7508 8.9353 8.67993 8.17106 7.68055 6.81877 5.50491 5.20992 5.60168 4.13149 3.04862 2.72606 3.88539 2.62534 2.29169 2.18174 2.15587 2.14719 2.392 2.7476 4.97609 2.36318 2.25715 2.16185 1.95226 1.9475
threshold=11.500000000000002 121.00000000000001 28.500000000000004 11.500000000000002 23.500000000000004 0.22500000000000003 161.50000000000003 18.500000000000004 0.36666666666666675 165.50000000000003 8.5000000000000018 0.29166666666666669 171.50000000000003 0.12702911347150805 18.500000000000004 10.500000000000002 0.36666666666666675 30.500000000000004 0.22651104629039767 0.5860724449157716 0.42330831289291387 178.50000000000003 12.701409177878157 0.45000000000000007 0.47790470719337469 212.50000000000003 4.5000000000000009 0.55000000000000016 0.35933245718479162 191.50000000000003
decision_type=2 2 2 2 2 2 2 2 2 2 2 2 2 2 2 2 2 2 2 2 2 2 2 2 2 2 2 2 2 2
left_child=1 -1 4 5 6 21 -2 11 15 -6 18 -4 -13 -11 19 -8 -17 -12 -5 28 -18 -3 23 -23 -25 -26 -24 -28 -15 -16
right_child=2 3 7 10 9 -7 8 -9 -10 13 17 12 -14 14 29 16 20 -19 -20 -21 -22 22 26 24 25 -27 27 -29 -30 -31
leaf_value=-0.032164693692824119 -0.023132517089782697 0.050714542067680002 -0.032039114845273955 -0.026656112544764216 -0.036317862570082259 0.047322663062066006 0.012159371626231104 -0.041755678043033442 0.028514205091878315 0.032251927576680703 0.01474219713202728 -0.050892439513111669 0.0082565671368600418 -0.00064463393188540416 -0.014591523127611273 0.012892051057266355 -0.030890355088720286 -0.0084328504822687427 0.02482372762330879 0.033080987718158004 -0.0051679135088853632 0.034446152305836863 0.049784575008588829 -0.020990988478261183 0.031947604398838307 -0.023161901701197397 0.056418241281968255 0.0075529236084653593 -0.016998572414090023 -0.029366665885117355
leaf_weight=44.688419874291867 23.580267517594621 9.8844586331397277 69.808599133393727 2.2026721644215277 50.961099485983141 382.43245380010922 37.332994999364018 373.4148217322072 38.620718784164637 4.400413100840523 26.289088587742299 5.131012090714651 18.204274513525888 27.64258510991931 38.626422045053914 18.491769910324365 13.721450528129933 22.835242250934243 116.59066947735846 2.847995137795805 20.046931852586567 16.397217790363356 15.62845719791949 9.3097528005018848 14.552965220063927 2.2454379312694064 3.0907791629433623 8.4554694499820453 53.699473202694207 52.773511307663284
leaf_count=1949 1277 123 5110 44 4812 5377 672 42517 829 49 485 422 557 765 1918 440 493 458 1544 51 571 205 150 101 143 16 48 97 1730 2905
internal_value=7.41943e-05 0.032598 -0.0257595 0.0371925 -0.0102889 0.044151 0.00474754 -0.0384509 0.00987507 -0.0201718 0.0180475 -0.0252022 -0.00474924 -0.0156003 -0.0167995 0.00184033 -0.00553126 0.00396937 0.0238692 -0.00993489 -0.01562 0.0289062 0.0258125 0.0184053 0.00833084 0.0245811 0.0373986 0.0206335 -0.011441 -0.0231226
internal_weight=1523.91 674.603 849.304 629.915 382.746 461.997 151.794 466.559 128.214 230.951 167.918 93.1439 23.3353 179.99 175.59 89.5931 52.2602 49.1243 118.793 84.1901 33.7684 79.5645 69.6801 42.5054 26.1082 16.7984 27.1747 11.5462 81.3421 91.3999
internal_count=75858 10740 65118 8791 16512 6260 4282 48606 3005 12230 2531 6089 979 7418 7369 2176 1504 943 1588 2546 1064 883 760 465 260 159 295 145 2495 4823
is_linear=0
shrinkage=0.05


Tree=26
num_leaves=31
num_cat=0
split_feature=3 3 1 1 0 6 6 2 3 2 3 3 6 2 3 1 7 6 0 0 2 7 0 7 9 7 1 0 1 1
split_gain=466.158 61.689 50.5 20.3665 7.83031 7.19417 5.70319 5.12525 4.09986 3.97128 2.82745 2.79937 2.79404 3.75605 4.90394 2.51279 2.43691 2.39809 2.34819 3.16368 3.03435 2.34087 2.1506 3.18328 2.30466 2.1336 3.58554 2.21025 2.11702 2.09313
threshold=11.500000000000002 28.500000000000004 11.500000000000002 23.500000000000004 9.5074084870799656 0.18333333333333338 0.36666666666666675 0.16672915965318683 5.5000000000000009 0.12702911347150805 6.5000000000000009 18.500000000000004 0.36666666666666675 0.68058383464813244 3.5000000000000004 18.500000000000004 0.36666666666666675 0.45000000000000007 5.0109468479795751 4.9882812629702018 0.33635380864143377 0.70833333333333337 4.4802981629939138 0.22500000000000003 2.5000000000000004 0.36666666666666675 8.5000000000000018 7.1219448214979222 40.500000000000007 29.500000000000004
decision_type=2 2 2 2 2 2 2 2 2 2 2 2 2 2 2 2 2 2 2 2 2 2 2 2 2 2 2 2 2 2
left_child=2 3 5 6 15 10 25 -4 -9 -5 -1 -11 13 -7 -15 18 -8 -6 19 22 -20 -12 23 -3 -25 27 -27 -2 -13 -10
right_child=1 4 7 9 17 12 16 8 29 11 21 28 -14 14 -16 -17 -18 -19 20 -21 -22 -23 -24 24 -26 26 -28 -29 -30 -31
leaf_value=0.031501232874551172 -0.0073346503171536834 -0.071603659702446476 -0.10095378949362302 0.026513750159354726 -0.019381068329425669 0.040182777109702798 -0.070093547520742761 0.0194336350042182 0.011593495638114043 -0.014453312443142498 0.019086084807940367 -0.01241982602015885 0.0465093011911221 0.030511907815384459 -0.042073832645320497 -0.040985175943901109 0.021749136396408658 0.018099281297500151 -0.040254307554603887 0.057511366626184758 -0.01048313351131464 -0.021671388569992088 -0.053938106862021676 -0.064886777516709737 0.030656062961523262 0.0087427376881925086 -0.014575343699891061 0.018758536337276654 -0.029156818689319876 -0.002272612277386067
leaf_weight=37.777149744564667 13.274400106980464 1.3240132284117825 1.0295583973638702 4.6055888389237216 25.572439295821827 137.39726720820181 0.73525684594642271 80.884964523371309 53.750554982107133 104.34154252498411 11.703603493981065 23.746560309547931 250.44195488968398 8.5262492471374554 3.2003369238227597 349.33938064280665 40.841991980210878 5.1226660069078198 44.426157719804905 1.5332388279493905 10.601153995376078 5.0400280104950061 3.10728874290362 0.74645277857780445 4.0871122713433579 25.179414199898019 47.747474473668262 20.883593541686423 92.445149407198187 55.131854571634904
leaf_count=407 421 121 46 77 1806 2082 35 1306 1172 4391 168 1236 4061 97 39 41731 1027 223 3809 17 401 56 245 53 200 543 1737 519 6526 1306
internal_value=8.59752e-05 -0.0249353 0.0318885 -0.00995444 -0.0374949 0.0409582 0.00440815 0.0103032 0.0109068 -0.0194382 0.0239208 -0.0203979 0.0432829 0.0378645 0.0107023 -0.0392966 0.020125 -0.013126 -0.0303355 -0.00901704 -0.0345188 0.00681761 -0.0200268 -0.00291419 0.0159013 -0.00169414 -0.00652433 0.00861826 -0.0257362 0.00457249
internal_weight=1464.54 819.661 644.884 373.801 445.86 454.087 148.662 190.797 189.767 225.139 54.5208 220.533 399.566 149.124 11.7266 415.165 41.5772 30.6951 65.8254 10.7981 55.0273 16.7436 9.26487 6.15758 4.83357 107.085 72.9269 34.158 116.192 108.882
internal_count=75858 65118 10740 16512 48606 6910 4282 3830 3784 12230 631 12153 6279 2218 136 46577 1062 2029 4846 636 4210 224 619 374 253 3220 2280 940 7762 2478
is_linear=0
shrinkage=0.05


Tree=27
num_leaves=31
num_cat=0
split_feature=3 8 3 1 1 1 8 6 6 8 8 6 3 0 7 3 8 6 1 3 6 7 10 1 8 0 1 6 0 2
split_gain=422.165 76.0425 56.9494 31.9552 20.1424 7.65437 7.23669 6.82098 6.73826 6.31549 4.89236 5.92438 4.63295 4.06411 3.93429 3.03799 2.74807 2.59701 2.42075 3.09148 3.27857 3.72222 2.81573 2.27269 2.2031 2.16449 2.1971 2.13964 2.11682 2.11571
threshold=11.500000000000002 121.00000000000001 28.500000000000004 11.500000000000002 23.500000000000004 18.500000000000004 161.50000000000003 0.36666666666666675 0.22500000000000003 165.50000000000003 171.50000000000003 0.22500000000000003 8.5000000000000018 4.4802981629939138 0.22500000000000003 18.500000000000004 182.50000000000003 1.0000000180025095e-35 6.5000000000000009 6.5000000000000009 0.55000000000000016 0.70833333333333337 86.500000000000014 28.500000000000004 196.50000000000003 12.701409177878157 8.5000000000000018 0.29166666666666669 7.1543534049476305 0.1994106397032738
decision_type=2 2 2 2 2 2 2 2 2 2 2 2 2 2 2 2 2 2 2 2 2 2 2 2 2 2 2 2 2 2
left_child=1 -1 4 8 6 10 27 17 25 -6 -4 13 -5 14 -12 -11 -17 -8 -10 -20 21 -21 -23 -14 -24 -3 -27 -2 -15 -7
right_child=2 3 5 12 9 29 7 -9 18 15 11 -13 23 28 -16 16 -18 -19 19 20 -22 22 24 -25 -26 26 -28 -29 -30 -31
leaf_value=-0.032175186729717996 -0.011567656162548743 0.022433711389220054 -0.040419351347765919 0.022329203096346718 -0.035499978429504302 -0.043391150410683199 -0.0084109027861005974 0.027470216610738247 0.048543308310972477 -0.0081111177878547998 -0.069641124094115867 0.0023603972518224715 0.014475055188928602 -0.052456443949097903 0.052206493531187663 -0.0037615451008112324 -0.025919131911387634 0.0091613156694820945 0.047565529330965986 0.03062505456569355 0.055440607026865096 -0.061510314223404063 -0.024379998387047113 -0.0075059378999117621 0.039859075244022275 0.044576769451295739 -0.0025935690022792063 -0.045542388871412993 -0.024769320719320545 -0.035400811153116551
leaf_weight=44.28613873932045 16.930459279916253 44.460260456660762 28.387782441452146 113.34924518340267 47.015697362483479 193.17807690869085 36.122559124138206 37.008354681078345 254.17890893109143 85.128961225505918 0.88698308146558646 26.546416233992204 23.911296330392361 11.370467810542324 2.6173581313341856 17.560632649343461 68.885863494069781 50.311229433398694 47.937240421422757 24.527395398123193 9.027313454076646 1.9487733021378506 2.5918084410950541 23.138935878872871 2.7516733603551984 25.844945329707119 2.7292947899550191 6.380596120026893 17.572389871580526 145.05029944272246
leaf_count=1949 893 531 2581 1588 4812 24029 1027 829 3179 2559 79 1000 467 1055 101 848 4011 1149 1131 648 290 17 50 476 62 302 50 384 1273 18488
internal_value=9.60216e-05 0.0309627 -0.0241259 0.0358138 -0.00964508 -0.0365563 0.00468329 0.00950827 0.0431241 -0.0192646 -0.0233642 -0.0151572 0.0168544 -0.0294891 0.0213657 -0.0148157 -0.0214181 0.0018175 0.0460606 0.038953 0.0288456 0.0213005 -0.0100626 0.00366497 0.00870048 0.0293343 0.0400713 -0.0208671 -0.0356465 -0.0399645
internal_weight=1411.64 620.683 790.954 576.397 365.344 425.61 146.753 123.442 415.998 218.591 87.3814 58.9936 160.399 32.4472 3.50434 171.575 86.4465 86.4338 342.963 88.7842 40.847 31.8197 7.29226 47.0502 5.34348 73.0345 28.5742 23.3111 28.9429 338.228
internal_count=75858 10740 65118 8791 16512 48606 4282 3005 6260 12230 6089 3508 2531 2508 180 7418 4859 2176 5377 2198 1067 777 129 943 112 883 352 1277 2328 42517
is_linear=0
shrinkage=0.05


Tree=28
num_leaves=31
num_cat=0
split_feature=3 8 3 1 1 0 6 8 6 8 2 3 2 6 1 3 1 6 7 0 2 1 0 7 0 8 1 6 2 10
split_gain=382.83 70.6112 52.1345 32.8222 18.7386 7.12236 7.0898 6.696 6.14335 5.52399 5.2503 4.6915 2.94458 3.035 2.83205 2.6897 2.97284 2.447 3.18851 3.02968 2.3789 2.87836 2.74973 3.64574 2.51907 2.27656 2.55264 2.26514 2.15521 2.03314
threshold=11.500000000000002 121.00000000000001 28.500000000000004 11.500000000000002 23.500000000000004 9.5074084870799656 0.22500000000000003 161.50000000000003 0.22500000000000003 165.50000000000003 0.16672915965318683 4.5000000000000009 0.12702911347150805 1.0000000180025095e-35 29.500000000000004 44.500000000000007 23.500000000000004 0.55000000000000016 0.63333333333333341 7.1219448214979222 0.47590902447700506 3.5000000000000004 6.4291545085725632 0.45000000000000007 12.701409177878157 161.50000000000003 10.500000000000002 0.22500000000000003 0.2111349552869797 222.50000000000003
decision_type=2 2 2 2 2 2 2 2 2 2 2 2 2 2 2 2 2 2 2 2 2 2 2 2 2 2 2 2 2 2
left_child=1 -1 4 6 7 15 20 -2 -9 -6 -5 -12 -11 -14 27 16 28 18 19 -10 22 -22 -3 -24 -25 -7 -27 -13 -4 -23
right_child=2 3 5 10 9 25 -8 8 17 12 11 14 13 -15 -16 -17 -18 -19 -20 -21 21 29 23 24 -26 26 -28 -29 -30 -31
leaf_value=-0.031511881615840322 -0.0202478451432242 -0.045567591085444087 0.029254420790793115 -0.10526514514363168 -0.034345886746559404 -0.03846082054076503 0.045911027080299635 -0.0051900112864248756 -0.0099867591097105562 0.025252069030810561 0.028470112150514256 0.0047605819068481077 -0.020086519894612697 -0.0050322527168854738 0.0017868585775709109 -0.040361954176410197 -0.034772067355020697 0.042121554425253782 0.00012600295912948799 0.028470559022047062 0.047867186564783087 0.043321133819278358 0.043094145575978834 -0.012565004235830846 0.033349485687704399 0.012672146385935962 -0.020919066226493976 0.026231847096272295 -0.019975581468729998 0.012142051600941778
leaf_weight=43.004568446078338 22.916082547744736 1.6882211321499223 2.5495004099793759 0.89109202660620113 45.163778833986726 6.2095730497967478 321.63882417860441 45.867776037193835 5.9737185537815085 4.5006884667091063 53.482602978823707 19.432305138325319 116.08783099392895 47.048136937606614 50.669321708846837 254.36381651030388 103.24614149646368 9.2450267276726645 24.008572811726481 35.888939075637609 22.709920792840421 7.9553745537996319 10.124633437953891 8.6815092298202199 4.5545356627553693 11.204636261332782 11.419812010601161 33.389270535670221 17.367883414030075 15.254047849215565
leaf_count=1949 1277 23 74 30 4812 636 5377 1291 131 49 622 327 5691 1678 881 31678 13848 241 524 818 207 128 126 104 60 285 1108 671 977 235
internal_value=7.37967e-05 0.0301924 -0.0233512 0.035013 -0.0094017 -0.0355959 0.0427549 0.00453443 0.00922854 -0.0188256 0.0157589 0.0164459 -0.0146442 -0.0157449 0.0102319 -0.0374252 -0.0313602 0.0180328 0.014652 0.0229828 0.0284508 0.035212 0.0160563 0.0205097 0.00323422 -0.0116435 -0.0042832 0.0183329 -0.013674 0.0228291
internal_weight=1356.54 593.476 763.062 550.472 356.701 406.361 392.607 143.9 120.984 212.8 157.865 156.974 167.637 163.136 103.491 377.527 123.164 75.1163 65.8712 41.8627 70.9682 45.9193 25.0489 23.3607 13.236 28.834 22.6244 52.8216 19.9174 23.2094
